783 100
topping -0.38641214 0.051771794 -0.10424451 0.10035151 -0.26533127 0.090951815 -0.39817056 0.17810336 -0.3691039 -0.26942763 -0.026723897 0.9789542 0.21911116 0.230704 0.43493068 -0.027173765 -0.18703479 -0.574474 -0.06174168 0.31647977 -0.024574736 0.116296105 -0.3952618 0.27297926 0.42759427 0.18948504 -0.11797448 0.5154559 -0.022003043 0.08821094 -0.407636 0.053643856 -0.9547691 -0.31431153 0.3226881 -0.443231 0.61995995 -0.3315808 -0.2606523 0.53006005 0.06100029 -0.55694556 0.11846753 -0.29008684 -0.025819663 -0.0026565453 0.33085138 0.3923398 0.54322344 -0.19800957 0.15371251 -0.5125853 -0.27926686 -0.25621042 -0.049703576 -0.54662913 0.17013875 -0.004027855 0.2614182 0.5536834 0.401249 0.069637224 -0.07143368 0.055569686 0.3210551 0.13936561 -0.50636554 -0.0019162747 -0.6322554 -0.2770305 -0.07267224 -0.91148466 0.41611066 -0.30812484 0.11703347 -0.741128 -0.2964856 0.09707148 0.060318973 -1.0745724 -0.0024004097 -0.20518708 0.09353939 0.039356664 0.12256111 0.6072212 -0.6084108 -0.5369059 0.329704 0.64516664 -0.0744673 -0.0025850332 0.527508 0.05295544 0.43485445 -0.2179342 -0.15298523 0.11509585 0.25580743 -0.54283
of -0.16847992 0.36483276 -0.28674614 0.019636713 -0.061932217 -0.12928183 -0.1494883 0.25185633 0.017311014 -0.25392306 0.1404162 0.6894507 0.26103255 0.09927139 0.45370576 0.045250062 0.09040034 -0.5661415 0.11305958 0.40797216 -0.308709 0.017497923 -0.47730336 0.18527533 0.05395325 -0.1821335 0.025869194 0.26294684 0.19020373 0.0333949 -0.30532327 0.21987 -0.7712519 -0.39742666 0.4929999 -0.30412498 0.5550303 -0.9816538 -0.5153399 0.7236592 0.7106679 -0.6277097 0.34177554 -0.37275916 0.37170532 0.29537824 0.1703975 0.15936412 0.6491918 -0.57409 0.12594835 -0.08898502 -0.2867406 -0.27912015 0.10164653 0.048461452 0.103905864 0.05057882 0.13674137 0.6087545 0.5055582 0.18946317 -0.19636275 0.06184364 0.2278538 0.11899129 -0.29894608 -0.2549218 -0.48603755 -0.55693793 -0.13413392 -0.9101521 0.21618962 -0.20056565 0.033167195 -0.7475462 -0.4927366 -0.043885764 -0.04951951 -0.6536648 0.29487664 -0.29095405 -0.06881294 0.25830686 -0.28467113 0.4526546 -0.96940285 -0.29109243 0.36200806 -0.16870049 -0.02835779 0.12572896 0.35170957 0.45570627 0.38856643 -0.25886148 0.031788003 -0.39074484 0.30028722 -0.337452
has -0.32633865 0.16726197 -0.15620492 0.25360054 -0.19274901 0.2785199 -0.33124843 0.5053015 -0.40502256 -0.20508929 -0.05858252 0.53804725 0.06361799 0.14283277 0.43979874 -0.124884546 -0.06453631 -0.65576696 0.15095909 0.4073622 -0.1560367 -0.28066695 -0.33028102 -0.0082891295 0.07559342 -0.034259383 0.50324863 0.15372993 0.0926294 -0.12464281 -0.20473225 0.27045387 -1.040917 -0.5445041 0.5687404 -0.37976092 0.39483866 -0.48491722 -0.391088 0.4282876 0.35133433 -0.4672764 0.30899033 -0.32762635 -0.029932804 0.27012193 0.56312805 0.30110672 0.9736055 -0.63605475 -0.19520934 -0.7214264 -0.30516866 -0.0979416 -0.032048617 -0.26687592 -0.15627806 -0.03096372 0.05815079 0.58039004 0.49347562 -0.2774982 -0.16057563 0.38089365 0.57185686 -0.026096694 -0.20740062 -0.26326627 -0.2542255 0.054631453 -0.28540453 -0.74455935 -0.094650045 0.13614343 0.029830875 -0.38331804 -0.59755033 0.06725582 -0.10185694 -0.8215342 0.105693 0.30442595 -0.4682024 -0.025064042 0.15181883 0.64014435 -0.6093843 -0.52183867 0.07648199 0.23768273 0.15818265 -0.27788055 0.15138425 0.034184787 0.37971112 -0.08533247 0.24477962 -0.22238398 0.41356122 -0.23217088
pizza -0.19133316 0.32774952 -0.22798575 0.5166547 -0.27956313 -0.20012358 -0.14174643 0.24484439 -0.5059527 -0.25790125 -0.48996812 1.0229588 0.1245728 0.17420964 0.16062486 -0.019756798 0.21490863 -0.66898084 0.075923145 0.31678447 -0.10040118 -0.23872186 -0.033201028 0.21371348 -0.1509356 -0.18358544 -0.34675002 0.2788808 -0.10553591 0.17274225 0.016406491 -0.13485374 -0.5160555 -0.00413569 -0.057326138 -0.020624112 0.29530394 -0.5641434 -0.39781034 0.75869596 0.38984206 -0.4360179 0.3217269 -0.17474207 0.13776514 0.32305667 0.78632784 0.5265868 0.5160522 -0.29605386 -0.18335727 -0.4786017 -0.39945462 -0.27686483 0.30249223 -0.051495466 0.06929368 0.22341977 0.39100397 0.7825222 0.4453323 0.08270502 0.24771024 0.010888381 0.18215622 -0.107989244 -0.20500444 -0.51524925 -0.71323967 -0.16454963 0.002889213 -0.78974015 -0.04634849 -0.12662345 0.14803584 -0.8199589 -0.49478853 0.36900568 -0.015903393 -1.0268664 0.22262408 0.10686364 0.10220986 0.36998886 -0.13217334 0.20058456 -0.6503909 -0.41007388 0.2138218 -0.23134527 -0.08618089 -0.058864724 0.13693778 0.20102291 0.14953497 0.10889102 -0.15718848 -0.2896035 0.14090581 -0.31624767
subclassof -0.37020046 0.46199885 -0.29354787 0.09626688 -0.03617022 0.14046751 -0.50823385 0.255054 -0.014842374 -0.51339924 -0.057185307 0.41270533 0.2393716 0.00800919 0.37534547 0.0017680678 -0.06764232 -0.50862557 0.13262121 0.6257851 -0.10856619 0.0044765784 -0.26641273 -0.018334424 0.12760343 0.01090616 -0.19619474 0.11310113 0.14442971 -0.1829093 0.22816142 0.15167843 -0.60689473 -0.33247128 0.092086025 -0.4007808 0.48926535 -0.03848753 -0.09286218 0.6750265 0.6876234 -0.53993845 0.28545073 -0.39707682 0.26521534 0.31946748 0.42667893 0.110280216 1.0066091 -0.3623624 0.32680774 -0.32277688 -0.37745225 -0.1802725 -0.19798571 -0.19503225 -0.05763023 0.43300176 0.44455504 0.8105232 0.23438966 -0.020115055 0.084756084 0.309666 0.2587453 0.4916154 -0.3297424 -0.17657019 -0.5406972 -0.12791653 0.045955267 -0.57111496 -0.32686922 -0.2103018 0.059855253 -0.4155536 -0.44693777 -0.17870235 0.1786715 -0.91670775 0.36991334 -0.16879615 -0.009774969 0.22621618 0.0057321466 0.5299555 -1.0088595 -0.4034643 0.037311215 0.035763234 0.12558976 0.1170885 0.37363732 0.5948582 0.12664293 -0.05918988 -0.13753654 -0.20759176 0.30558413 -0.3462759
is -0.4169696 0.4374735 -0.13309415 0.045129452 -0.09528671 -0.19861531 -0.48284563 -0.11343558 -0.40444225 0.004731715 -0.28783023 0.864589 0.24916397 0.19124895 0.7652605 -0.3178607 0.12874778 -0.28504184 0.016969556 0.17468205 -0.5869977 0.093896955 -0.41827333 -0.032982428 0.06239052 0.17975038 0.14663595 0.25897247 0.10093352 0.3831301 -0.0031616022 0.042335168 -0.5394174 -0.19379236 0.29030457 -0.3186762 0.34841013 -0.66188204 -0.5058321 0.23137037 0.22639664 -0.487663 0.26673222 -0.21869877 0.40424356 0.3606782 0.8738539 0.49174148 0.85298216 -0.25144926 -0.17316788 -0.35978216 -0.29007283 -0.19902608 -0.12031097 -0.2947957 0.17378177 -0.055719573 0.47781888 0.8513157 0.37851202 -0.11298368 0.0337565 0.019905245 0.25710508 -0.2780826 -0.45955244 0.039371196 -0.2796895 -0.31146923 0.08420422 -0.737741 0.012885648 -0.34857962 0.21878763 -0.43412217 -0.542582 0.30541041 -0.23566183 -0.84015983 0.07568154 -0.1712397 -0.25740126 0.24257822 -0.08681944 0.8572165 -0.88893026 -0.5034086 0.21081397 0.41973737 -0.17713015 0.15048812 -0.0038095638 0.56474304 0.23210555 0.01566389 0.17553098 -0.040597033 0.41276446 -0.19233511
class -0.1957754 0.89585674 -0.12209489 -0.11193029 -0.15227467 0.035034146 -0.5427608 0.32743412 0.08017853 -0.077753596 -0.34228626 0.7003013 0.3551805 -0.24708548 0.33661038 -0.0936153 -0.06541732 -0.5059725 0.19360559 0.46309713 -0.38135687 -0.2013051 -0.4104309 -0.38231286 0.001638954 -0.15468566 0.16193332 0.23393904 0.1354793 0.17147943 0.21301831 0.3108399 -0.7018723 -0.10820716 0.10180995 -0.44965604 0.15009756 -0.056259688 0.04668787 0.6512592 0.6543202 -0.112063706 0.58373 -0.26432323 0.32666376 0.15540045 0.5555217 0.29281124 1.0932664 -0.26026222 0.19903079 -0.31124657 -0.45999238 -0.20309143 0.0043981033 -0.28000984 0.14159986 0.3208644 0.2906138 0.7522805 0.07959495 0.12907502 -0.062457826 -0.19507013 -0.04823266 0.19828027 -0.3719603 -0.08629394 -0.22873779 -0.20826893 0.08671562 -0.76520866 -0.07289409 -0.3989253 -0.0449649 -0.17461796 -0.605404 -0.35907522 0.038960256 -0.4200283 0.38092688 -0.33075544 0.12789 0.28723267 -0.1584491 0.8442339 -1.028329 -0.20278846 -0.02033819 0.34136337 0.136851 0.32772717 0.9518725 0.45262185 0.26796857 -0.53560144 -0.061504126 -0.14759114 -0.059243545 -0.56456864
super -0.25889736 0.4872356 -0.5248248 0.03879761 -0.19036593 0.0940924 -0.7028151 -0.13168877 -0.20623635 -0.013696115 -0.32635263 0.6340746 0.2314858 -0.05919273 0.41388795 -0.055038225 0.24513088 -0.14128321 -0.056731354 0.49249175 -0.28101286 0.03478924 -0.34943023 -0.1518485 0.5189903 0.17989999 -0.14602813 0.3984241 -0.076703414 -0.26252732 0.37046635 0.24882896 -0.4777598 -0.3758886 0.20387505 -0.37189382 0.67396843 -0.47171566 -0.36855206 0.50437963 0.35433513 -0.26355544 0.041873902 -0.13753061 0.42785358 0.40254173 0.46294224 0.07558521 0.82547075 -0.522072 0.391458 0.11222331 -0.6631603 0.04746191 -0.20304522 -0.3217497 0.026375903 0.36184847 0.19979262 0.77533984 0.2144698 0.09653441 0.16781887 0.19151382 0.3380808 0.5292865 -0.47303683 -0.26486814 -0.5607704 0.06792194 0.08186571 -0.28336343 -0.33707467 -0.049622074 -0.112417094 -0.000908249 -0.36516276 -0.25427365 -0.1102511 -0.63529843 0.2999479 -0.27944338 -0.025407434 0.14264947 -0.13530141 0.74900246 -1.26576 -0.46068624 0.03253128 -0.08652763 -0.30838448 0.10345573 0.4320421 0.58571357 0.062239487 -0.33026418 0.24467967 -0.24578838 0.22455566 -0.5559642
label -0.43975222 0.40373936 0.003120313 -0.04995967 -0.31501848 -0.008771818 -0.6395399 0.2084354 -0.14012739 -0.32796463 -0.16800433 0.5982253 0.2542943 -0.16992304 0.48972675 0.09583608 0.014315333 -0.716476 -0.010024773 0.32600042 -0.2865927 -0.062174503 -0.6379589 0.0055949306 0.19920756 0.36675045 0.012265193 0.24151622 0.19089372 -0.22918697 -0.20830451 0.25948313 -0.88497466 -0.14165781 0.38415357 -0.54772633 0.40747407 -0.43349156 -0.3298604 0.75759786 0.66172236 -0.615514 0.26307493 -0.23857738 0.15551032 0.120630756 0.17999798 0.100012556 1.0577552 -0.41738802 0.15821992 -0.21878141 -0.5956559 -0.24652392 -0.012637173 -0.13319917 -0.016580345 0.26353034 0.5652847 0.90302485 0.7030731 -0.020075643 -0.22231103 0.2124246 0.41224158 0.23042224 -0.3806088 -0.042407762 -0.18143465 -0.1770916 -0.073543444 -0.92200214 -0.11340028 -0.1254079 -0.04726308 -0.63849944 -0.426377 -0.008876593 -0.11749872 -0.5924777 0.31593606 -0.043010734 -0.14364173 -0.0157271 0.19412112 0.57624906 -1.0253712 -0.28987977 0.1006178 0.17633753 0.02086217 0.2254773 0.38599747 0.3752563 0.46075577 -0.27552763 0.14224027 -0.1848212 0.41667488 -0.39109984
preflabel -0.41098404 0.3127462 -0.060413364 0.03620724 -0.29349262 -0.054193012 -0.59105974 0.079081625 -0.16177693 -0.34731138 -0.24046095 0.53143376 0.182575 -0.211939 0.45937115 0.07922264 0.076789245 -0.6432122 -0.021170802 0.32214138 -0.27649894 -0.010703954 -0.5561266 0.0023783701 0.19173868 0.28921288 0.09420674 0.23366326 0.14634874 -0.22755525 -0.12063118 0.19329908 -0.67407465 -0.2164888 0.33509213 -0.46378317 0.41043845 -0.4295469 -0.34271133 0.6412851 0.51331323 -0.6157883 0.27661264 -0.14922553 0.15750676 0.19226044 0.21886729 0.15702562 0.96507525 -0.3618764 0.12028759 -0.14726235 -0.57154024 -0.085495554 -0.067310914 -0.13837354 -0.06707206 0.17416961 0.5209145 0.76299405 0.48065868 0.004566661 -0.13981925 0.18658714 0.3856389 0.19151059 -0.28523204 -0.006328086 -0.29116005 -0.19258018 0.0033210183 -0.6985576 -0.08443941 -0.027601521 -0.014864765 -0.4896999 -0.3409341 -0.03418522 -0.15487878 -0.5506901 0.29723907 -0.008443278 -0.16187486 0.06169707 0.16212529 0.51525354 -0.87831736 -0.29411393 0.072387256 0.109134294 -0.009087305 0.20018129 0.38706627 0.34914225 0.38819656 -0.28502038 0.154238 -0.18850559 0.3391008 -0.40928754
http://www.w3.org/2000/01/rdf-schema#subClassOf 0.31830892 -0.45056218 0.49068093 0.21024875 0.023253603 0.3724183 0.53680587 -0.100185335 0.15023185 0.66992724 -0.09206575 -0.042713176 0.10593576 0.59896594 -0.3378395 0.5445818 -0.057040557 -0.33151832 -0.0703525 -0.26225695 -0.35331625 0.009476257 0.33891928 0.8103181 0.58352834 -0.18840341 -0.44201207 -0.22050938 -0.21549661 -0.5053046 0.78936094 0.05034036 0.4046591 0.14328404 0.03335616 0.27264094 -0.03729882 -1.0850179 0.1846544 -0.3248074 0.07843814 -0.29081646 -0.18695694 -0.27895316 0.076444894 0.3528693 0.52419305 0.054424334 0.40093455 -0.19581094 -0.07372118 -0.4617902 -0.03689936 0.9862972 -0.2152404 -0.2907207 -0.23671065 0.5114133 0.17986707 0.22173387 -0.3983261 0.075795814 -0.7908748 0.30852807 0.11140083 -0.17846784 0.025367508 3.6033518e-05 0.026208812 -0.5897674 -0.03434905 -0.56571895 0.1989647 0.20605797 0.37900752 -0.19207214 0.3442773 0.12056131 -0.44574764 0.22346766 0.5574704 0.12457697 -0.018487401 0.71499085 -0.40899584 0.07504872 0.4618596 -0.9815333 -0.36617514 0.3889244 -0.6143785 0.05416553 0.8146054 -0.3705081 0.22044179 -1.2650386 0.32529175 0.5601877 -0.75967056 -0.7200797
spiciness -0.26353273 0.4298056 0.028591765 -0.5067955 -0.34465 0.15116154 -0.06525928 0.55502355 0.26206374 -0.46907142 -0.10047756 0.50326264 0.49271137 0.39583853 0.33009562 0.45087844 0.247622 -0.7152172 0.32486755 0.43281567 -0.28526145 0.079071835 -0.76043206 0.009101032 0.23642127 0.46934843 0.0017096663 0.20770042 0.25207326 -0.029721228 0.0380375 0.081610955 -0.22130693 -0.000111073015 0.37333965 -0.65091634 0.4151093 -0.20108353 -0.17263067 0.65512943 0.34027496 -0.3096769 0.024664719 0.3197778 -0.593263 -0.1829536 0.12641595 0.13167492 0.6518652 0.014973527 0.36525795 -0.17708075 -0.15288919 0.07944108 -0.02274919 -0.2168183 -0.120417014 0.69698316 0.86864793 1.3187531 0.26704413 -0.39085808 -0.5939777 0.2742831 0.4111298 0.10023437 -0.33139446 -0.015571221 -0.661817 -0.21178241 0.008328174 -1.0350643 -0.2710023 -0.28271496 -0.06842182 -0.4282994 -0.7844372 0.03280803 -0.08160284 -0.80423975 0.23858756 0.025786694 -0.15984677 0.13897075 0.24239303 0.4412294 -1.2687528 -0.80671614 -0.10293976 0.0038565951 0.38333312 -0.20708707 0.13983974 0.43926167 0.25705227 -0.034530874 0.26750776 -0.093176655 0.17811216 -0.18159065
http://www.semanticweb.org/owl2vec#superClassOf 0.28731906 -0.33134624 0.43510595 0.119921945 0.059956245 0.37109998 0.4962809 -0.13725513 0.260415 0.67392766 -0.15798254 -0.020400204 0.18613726 0.7049927 -0.47699732 0.6803039 -0.15986493 -0.37084895 -0.06083157 -0.25412712 -0.2410968 0.0992642 0.18339832 0.7620615 0.69106483 -0.096497 -0.69939554 -0.009805375 -0.2594627 -0.49824366 0.77075636 0.04193552 0.51329136 0.041025773 0.31540293 0.26593015 -0.18855648 -1.0209702 0.33328295 -0.42380717 0.18389694 -0.25441822 -0.093807735 -0.19881916 0.16324703 0.39417168 0.50894064 -0.11000344 0.23663585 -0.13466793 -0.11525506 -0.3328374 -0.2664037 0.95589 -0.22797313 -0.55854994 -0.29645053 0.36652917 0.31748587 0.30921355 -0.33134654 -0.048823673 -0.61549336 0.3519882 -0.056418933 -0.3168837 -0.13859646 0.1334609 0.23386946 -0.5674374 -0.069910176 -0.40355492 0.12971844 0.25089908 0.46179426 0.017214352 0.33637065 0.35104662 -0.6552283 0.22540644 0.70415086 0.113460146 -0.0076676128 0.76149297 -0.29063538 0.084532686 0.22842917 -1.0244789 -0.34264824 0.32835197 -0.6225464 0.14909314 0.7145172 -0.4516631 0.2822437 -1.0831245 0.18164623 0.55124635 -0.61806583 -0.7292143
http://www.co-ode.org/ontologies/pizza/pizza.owl#hasTopping 0.49733976 -0.37266102 0.0631187 0.31313166 0.49978447 0.581749 0.2614176 -0.10498028 0.06294202 0.35013288 0.10311023 -0.74415636 -0.093346275 0.6959887 0.35517368 0.25196356 0.09294806 -0.428218 -0.39422438 -0.09095364 0.14765869 -0.19775967 0.037662454 0.44980484 0.52707905 -0.5541826 0.25550818 -0.7309291 -0.21100262 -0.9890887 0.44433725 -0.124995336 0.30082273 0.04714095 1.3320575e-05 0.65959555 0.1112139 -1.089615 0.26893637 -0.10161954 0.20854521 -0.6958304 0.26870576 -0.34289747 -0.15226455 0.696678 0.4289179 0.13819379 0.81593823 -0.4114252 -0.41960058 -0.8503908 0.27661458 0.19134587 -0.5760214 0.08227671 -0.30677238 0.11652171 0.07090671 0.30422544 -0.6261618 -0.3976854 -0.54256505 0.20444037 0.6323742 -0.0943871 0.23999973 -0.24607801 0.33898023 0.15991074 -0.15514548 -0.4629511 0.049514454 -0.070900574 0.31417543 0.48688823 0.066841185 0.15946013 -0.38821578 -0.12865393 0.67700046 -0.46871555 -0.26466265 0.46941492 -0.6526227 0.19598356 -0.061300624 -1.3603368 -0.21626809 0.7594349 -0.3625441 0.13220257 0.603755 0.06577068 0.13042237 -0.70456135 -0.014023753 0.33250347 -0.42089954 -0.3517929
pizzatopping -0.07910511 0.024846487 0.13353652 -0.5293882 -0.05481953 -0.0243846 -0.6641325 0.3345773 -0.2669595 -0.11558372 -0.51657265 0.86870146 -0.10213659 -0.027762918 0.07117966 0.5834768 0.28038147 -0.33662796 -0.18523009 0.50561583 -0.012240102 -0.20842975 -0.3138233 -0.3022891 0.40231872 0.040676717 -0.085386395 0.12302716 -0.28173956 -0.16323921 -0.04744412 0.078523956 -0.47732127 0.086408645 0.15359215 -0.07460175 0.23112606 -0.50089216 -0.31449074 0.6867987 0.5765515 -0.13941579 0.24538054 -0.30998778 -0.052605566 -0.16062929 0.37365618 0.23565388 0.5912946 -0.46427193 0.5333667 -0.12113892 -0.29905823 -0.073433705 -0.06637654 -0.35162005 0.23335746 0.3963048 0.29448378 0.4162687 0.3335985 0.21542111 -0.23136589 -0.45429492 0.019673198 0.50042087 -0.42146915 -0.24440436 -0.36933526 -0.46528655 0.4710479 -0.43767855 -0.18706253 -0.3497906 0.40421546 -0.05779162 -0.56089824 0.027672695 -0.047312938 -0.7669311 0.14745547 -0.46264556 0.034499016 0.14634584 -0.05614085 0.69892645 -0.9450255 -0.7588496 0.11818808 0.05170128 -0.0055199442 0.018169321 0.419878 0.18908139 0.22802995 -0.6295886 -0.19226825 0.008333923 -0.33854267 -0.6389046
http://www.co-ode.org/ontologies/pizza/pizza.owl#isToppingOf 0.34366444 -0.654606 0.4364339 -0.1861648 0.15552211 -0.29042375 0.56329405 -0.3470194 0.45867333 0.77877444 -0.27758822 -0.7821146 0.34905952 0.30442914 -0.23635787 0.9020619 0.026041845 -0.7643319 -0.55259085 -0.29344082 -0.231228 -0.041122776 -0.2825228 0.47594166 0.8959233 -0.34919205 -0.32102868 -0.5012968 -0.6644659 -0.40307814 0.33065704 -0.5346419 0.59613854 -0.15913498 0.51963186 -0.12421035 -0.11152581 -1.274861 0.14992669 -0.19233814 -0.00528993 -0.75226593 -0.150493 -0.2861917 0.15689018 0.5557691 0.3779423 0.3650938 0.49652857 -0.27881432 -0.13165472 -0.17895655 -0.12080125 0.649763 -0.16856135 -0.16883032 0.13449271 0.4856616 0.480871 0.62305135 -0.5363908 -0.22129983 -0.86824036 0.23627575 0.06500358 0.13111332 0.018995252 0.04835483 0.22949658 -0.04581377 0.00052691775 -0.46953014 0.12103955 0.3195154 0.37924638 0.12219684 0.1868122 0.07386076 -0.5316369 -0.0029924747 0.5144111 -0.22728632 0.12118388 0.55669725 -0.25527808 0.3721304 0.20630412 -1.2935201 -0.27333128 0.050897382 0.16588 0.2675886 0.93793714 -0.5271015 0.11457062 -1.1307311 0.06025763 0.70251614 -0.4226557 -0.5324176
tomato -0.14110121 0.038325164 -0.3322157 -0.31506523 -0.22799954 0.51229364 -0.12035533 0.37708083 -0.6130981 0.12808712 -0.6162263 0.20313491 0.43800062 0.71100986 0.038490124 -0.56275076 0.036167704 -0.87600344 -0.28659263 0.41296297 -0.28910106 -0.00050248083 -0.039662816 0.8013541 0.13546018 0.14245898 -0.08966897 0.2398357 -0.43714556 -0.1329217 -0.10931664 0.5570898 -1.093252 0.025073836 0.4269552 -0.059300836 0.5415171 -0.42397314 -0.14765796 0.20814356 -0.04726492 -0.62118906 0.6799994 -0.028733382 -0.37826124 0.71626043 0.40260512 0.21916284 0.48114923 0.54007554 -0.35671782 -0.7221778 -0.1851103 0.12922023 -0.3089406 -0.344041 0.27119526 0.49284735 0.21542537 0.54964036 0.33396712 -0.47124934 -0.30788967 0.12980583 0.1362948 0.090376325 -0.21676695 0.19299056 -0.9138629 0.25510022 -0.2325332 -0.88810897 0.3538134 0.47956976 0.20994002 -0.2595152 -0.8267832 0.2087488 0.2018495 -0.6689978 0.1724234 -0.48202312 0.058995824 0.6074902 -0.14378698 0.48358253 -0.26839906 -0.14742504 0.48818013 -0.19086328 0.47005963 -0.14041853 0.47630167 0.31453365 0.12851967 0.17974438 0.110183574 -0.11480677 0.094536096 0.14128019
http://www.w3.org/2000/01/rdf-schema#label 0.11176429 -0.42225304 0.531499 -0.025866091 -0.072283894 0.12834218 0.25148404 -0.061087247 -0.23521669 0.64340526 -0.116429135 0.10835626 -0.03717269 0.39828926 -0.15917572 0.43215457 0.0804151 -0.111074135 -0.0013191629 -0.19933017 -0.34349158 0.03400314 0.33658728 0.43423277 0.31371927 -0.12214509 -0.13680987 -0.34928572 -0.17895794 -0.26468387 0.33271372 -0.006159522 0.19266382 0.40264764 -0.14226787 0.1816337 0.029877096 -1.0936501 0.187247 -0.10074639 -0.054720704 -0.21076114 -0.087116554 -0.38045016 0.08148997 0.48020384 0.6631223 0.108999714 0.38532117 -0.17667957 -0.05262106 -0.40017718 -0.04634129 0.681225 -0.13352986 -0.19770558 -0.2664939 0.5023065 0.11766295 0.14305036 -0.24390171 0.09896519 -0.8491957 0.28051272 0.15363884 0.023416813 0.07307286 -0.09913053 -0.0010804234 -0.5541818 0.004235296 -0.45827705 0.2773358 0.081913725 0.31566742 -0.292655 0.19793108 -0.14773278 -0.29915252 0.24462342 0.20413238 -0.03560453 -0.11157724 0.49801293 -0.26737309 -0.008590872 0.5321519 -0.72778577 -0.21957786 0.21832928 -0.37863767 0.021709166 0.40984038 -0.18655069 0.1446551 -0.9609486 0.45410073 0.30773222 -0.56663376 -0.3884528
altlabel -0.4143106 -0.09976364 0.07719247 -0.31006774 -0.2503203 -0.21088114 -0.65449685 0.010214186 -0.34306112 -0.13374901 -0.6665803 0.5902974 0.39099798 -0.24435197 0.07121418 -0.08147718 -0.018982492 -0.3218137 0.13563184 0.14980699 -0.1726973 0.40155745 -0.48728663 0.5746557 0.2459129 0.6131024 -0.066605024 -0.07082171 -0.04256325 0.29053006 -0.014956021 0.13509801 -0.70427054 -0.21728362 0.5301827 -0.60676825 0.5323746 -0.5234117 -0.7590249 0.53588283 -0.067617424 -0.99869776 0.63494223 -0.058122665 -0.19542329 0.4094268 0.4964545 0.34625176 0.8293446 0.044155378 -0.27774498 -0.5558998 -0.48942167 0.10550692 -0.052164394 -0.2837098 0.25349933 0.07543964 0.24757986 0.43838093 0.5395895 -0.107462056 0.07043234 0.30011916 0.36943564 -0.14575808 -0.47479993 -0.14339083 -0.668382 -0.31247965 -0.4793379 -0.6470887 0.17956327 0.11760382 0.12744337 -0.4523629 -0.21220917 0.53144854 -0.34079048 -0.5509584 0.24227414 -0.19017155 0.05058332 0.48916388 0.5336547 0.22704668 -0.1286162 -0.29511756 0.24811527 0.37157962 0.055129837 -0.07445882 0.716305 0.05582463 0.5305587 -0.35952175 0.1778014 0.11014626 0.33267885 -0.21377566
http://www.w3.org/2004/02/skos/core#prefLabel 0.11823486 -0.39629036 0.5230196 -0.05918053 -0.08141459 0.07892261 0.26343444 -0.11878121 -0.19722308 0.6532912 -0.17292872 0.08550154 -0.030468296 0.44754535 -0.14342752 0.4319837 0.09049502 -0.1369414 -0.04243387 -0.18069264 -0.3128824 0.018215364 0.2907377 0.46929583 0.33120033 -0.15046684 -0.18092656 -0.34560263 -0.16451274 -0.24823539 0.32677284 -0.05932056 0.24409974 0.38290435 -0.094787516 0.18518399 -0.044872764 -1.0945777 0.189782 -0.019077376 -0.052632917 -0.20133203 -0.04135009 -0.37203935 0.09122811 0.49960917 0.67699957 0.12819363 0.3539119 -0.18512143 -0.11790538 -0.3818696 -0.0667846 0.7095872 -0.09105739 -0.22927602 -0.2395893 0.49368855 0.1484122 0.18025044 -0.19883232 0.09127161 -0.8142437 0.26199433 0.175643 -0.0040907715 0.11873521 -0.07632439 0.07385407 -0.53648335 0.018857986 -0.46206495 0.32109717 0.11613232 0.2922774 -0.27237973 0.20424905 -0.06172616 -0.37040132 0.27262497 0.19169877 -0.03757119 -0.14306961 0.48257628 -0.25963572 -0.009586206 0.5147527 -0.6838426 -0.18947494 0.19669683 -0.35269332 0.036970668 0.35718802 -0.20494144 0.14901172 -0.98123163 0.43630987 0.31928295 -0.55370545 -0.38083607
tomatotopping -0.16132161 0.23336506 -0.38726678 -0.15013072 -0.49499738 0.38244292 0.11341053 0.1679125 -0.48492151 0.31221622 -0.5666333 0.46619418 0.61079496 0.5267391 -0.06407146 -0.6326764 -0.018559203 -0.79023606 -0.13302417 0.30120203 -0.48051068 -0.00064098736 -0.107048705 0.7186674 0.018410085 0.20956542 -0.2131808 0.4053569 -0.30847463 0.021445334 -0.23016085 0.57636356 -0.9260607 -0.07378344 0.37226063 -0.0008086862 0.6642379 -0.581734 -0.09441152 0.37669477 0.068011224 -0.6555138 0.8786734 0.089179926 -0.122492 0.64415866 0.40143692 0.23853609 0.51240593 0.278488 -0.4994615 -0.6084197 -0.42689198 0.30129 -0.097088665 -0.51228625 0.27493912 0.33339018 0.26918393 0.55236924 0.5166443 -0.2974833 -0.15515864 -0.028457949 0.2719946 -0.1197356 -0.3189412 0.20185222 -0.9430088 0.2845733 -0.33801645 -0.97458357 0.42103118 0.40146652 -0.06591401 -0.4757586 -0.72057444 0.23186931 0.030551257 -0.54962033 0.13337502 -0.26992482 0.16045299 0.5347495 0.015235766 0.2398553 -0.36645424 0.013952883 0.58440584 -0.20710582 0.13840774 -0.27572712 0.5752077 0.1969323 0.07515374 0.09820994 0.28061628 -0.12275643 0.095977455 -0.15110038
mozzarellatopping -0.31552622 0.1277766 -0.5110009 0.1869836 -0.07518197 0.3936603 0.0972711 0.22730874 -0.6129122 -0.13308845 -0.4750945 0.4910034 0.30056876 0.9964494 0.38591862 -0.46576786 -0.22087176 -0.7052371 -0.24815898 0.41996557 -0.014312522 -0.1015156 -0.09054439 0.7537541 0.20294246 0.19588615 0.0043520187 0.28716874 -0.31158578 -3.0077143e-05 0.17428721 0.49371225 -0.5349231 -0.09271528 0.23968765 -0.14109382 0.83963776 -0.8309301 0.1114229 0.3051154 -0.38266206 -0.4136789 0.93730825 -0.10836247 0.29625195 0.59774774 0.40547645 0.40067822 0.3250898 0.39685327 -0.38051003 -0.7610884 -0.41800737 -0.060856685 0.14065495 -0.12565993 -0.029379735 0.06854241 -0.10534518 0.67136663 0.15995802 -0.11762385 -0.2848118 0.7619096 0.31041205 -0.10154665 0.04721919 0.19746666 -0.6247134 -0.036001705 -0.36891344 -0.56549764 0.44304317 -0.0019916266 -0.26522112 -0.23307091 -0.49465 -0.02809353 -0.45790103 -0.6862349 0.19684246 0.14360127 0.25831932 0.1794911 0.06641983 0.20174457 -0.26388183 -0.052331585 0.3995138 0.07408161 0.41257706 0.05289787 0.13143072 -0.13347182 0.35702357 0.27778822 -0.15326533 0.28192055 0.0665869 0.04975115
mozzarella -0.37461 0.3890023 -0.4843268 0.314808 -0.43283463 0.39416453 0.2856254 0.21711092 -0.55075675 0.08840209 -0.45027354 0.69308627 0.45146966 0.8451752 0.19777848 -0.5983681 -0.1567874 -0.60598165 -0.07369091 0.35331616 -0.4276624 -0.170798 -0.1204534 0.72457767 0.26632053 0.1817389 -0.20129558 0.5001653 -0.2425038 0.08579705 0.0840731 0.52471495 -0.5121888 -0.20816126 0.30273396 -0.06990163 0.84524345 -1.0714656 0.12186917 0.48457682 -0.22464341 -0.54327875 1.117733 0.00899976 0.2918965 0.5510702 0.55168307 0.58006865 0.2552071 0.27763668 -0.5581714 -0.70067215 -0.6710808 0.16961528 0.20129886 -0.443573 -0.088120036 -0.0009441613 0.024155408 0.63375324 0.35819194 0.010649835 -0.3625389 0.5603815 0.38383082 -0.3363421 -0.050909244 0.27774832 -0.6957219 -0.015027142 -0.37976676 -0.86612785 0.45834175 0.042863876 -0.50013006 -0.32082924 -0.45896372 -0.028528975 -0.44156864 -0.5953073 0.09192774 0.27057153 0.30590984 0.18719213 0.10394024 0.101587236 -0.35816786 0.13557151 0.5910137 -0.15118939 0.24206124 -0.044898283 0.16484457 -0.1784798 0.28187984 0.28373808 0.13517705 0.15732235 -0.12279401 -0.01804586
http://www.co-ode.org/ontologies/pizza/pizza.owl#PizzaTopping 0.2965021 -0.7283458 -0.16099422 -0.25935745 0.51417565 -0.19552435 0.1750378 -0.48886764 -0.33692318 0.15016235 -0.51873386 -0.4328975 0.09987316 0.021095479 -0.07173507 0.09208548 -0.36147192 -0.33604985 -0.40232736 -0.08944564 -0.5391095 -0.19539386 0.027605334 0.7658863 0.2541043 -0.03071098 -0.23875909 -0.3894252 -0.21613443 -0.6381241 0.691866 0.16589093 0.052561678 0.13983151 0.09354778 0.056471877 -0.027732017 -1.0944068 -0.073090374 -0.3048544 0.09554333 -0.2122319 0.15407336 -0.5068728 0.2589208 0.122300036 0.046731576 -0.04487983 0.5744459 -0.40273866 0.27716288 -0.49978092 -0.102800146 0.24311723 0.1572889 -0.025910135 -0.38559204 0.1791699 0.48500705 0.37264085 -0.24270979 0.0323308 -0.33201614 0.11621137 0.5168558 0.045872394 0.2423688 -0.19126911 -0.53475314 -1.0956783 -0.06816653 -0.042374797 -0.1425623 -0.09857883 0.6688747 0.15695259 0.22498961 0.28872076 -0.32050195 -0.17117716 0.5093471 -0.22835381 0.11366638 0.7366951 -0.31137943 0.442814 0.09450719 -0.7237783 -0.23235695 1.2353281 -0.29053718 0.094812594 0.70143867 -0.5019697 0.3017798 -1.0044159 0.27144784 0.30222902 -0.90900475 -0.45537758
hot 0.040341232 0.6007983 -0.670548 -0.15084973 -0.09013734 0.8265688 0.32392272 0.8129065 -0.4522597 -0.19935606 -0.71621823 0.4414546 1.0328459 0.8904106 -0.014407985 0.3408615 0.3806871 -0.48093837 -0.18673852 -0.0059625497 -0.11098271 0.12238914 -0.5986254 0.7838429 -0.39649585 -0.0015543243 -0.10775676 0.026495345 -0.06670629 -0.43734917 -0.529303 0.06540676 -0.40468442 -0.6478079 0.1994969 0.023672527 0.15231715 -0.44224113 0.12057773 0.11543094 0.1694542 -0.7064426 -0.14382346 -0.29284918 0.62606156 0.4953777 0.73630893 0.42211753 0.91737384 -0.22906962 0.44127312 0.0037774094 -0.5108613 0.18339089 0.5296319 -0.34956753 0.47306925 0.59426457 -0.18449293 -0.038164888 -0.060373407 -0.0912137 -0.1976034 -0.06136407 0.09457263 0.19261669 -0.39932916 0.12584528 -0.18586287 -0.41051787 0.7415536 -0.20777632 -0.08477158 -0.31278127 -0.3718297 -0.11888209 -0.18505605 -0.16875881 -0.2110008 -0.6781701 -0.04011741 0.37964988 -0.06844897 -0.2735713 -0.5590839 0.20593032 -0.13518399 -0.6072515 -0.16509657 0.00038199333 -0.13547577 -0.15939513 0.5657827 -0.18760717 0.040092126 -0.7309618 0.1471622 0.2444596 -0.11282636 0.18305707
pepper 0.047447897 -0.31302902 -0.06421336 -0.66136545 -0.51005244 0.38864174 -0.060005758 0.3262436 -0.5225434 -0.07403282 -1.1032573 0.7495747 1.3797898 0.97602427 -0.2579268 0.42565066 0.3042574 -0.82210714 -0.46747988 0.6770028 -0.37198672 -0.52038586 -0.8701879 0.21552683 -0.2993609 0.120480284 -0.40702268 0.45872387 -0.2966431 -0.13059188 0.39897808 0.67332006 0.015665716 -0.56640005 0.3560847 0.17719927 0.007247963 -0.40113693 0.32739767 0.42067084 -0.16734636 -0.3108238 0.8481461 -0.7279456 0.411146 0.34207097 0.65781075 0.1444295 0.43540165 -0.40701342 0.5213087 -0.23296843 -0.41809323 -0.12099692 0.29543662 -0.49602252 0.59000796 0.4115202 -0.71463585 0.43629152 -0.085089155 -0.6197107 -0.1353883 0.41638473 0.08712164 0.1956255 0.2775068 0.69129235 -0.58008814 0.23935759 0.3387655 -0.2797513 0.49385357 -0.017209616 -0.07276504 -0.205528 -0.5402658 0.084499724 0.0012195504 -0.42096448 0.3279497 -0.1840317 -0.4648688 0.23761071 -0.36526975 0.48301283 -1.015308 -0.79942733 0.6045206 -0.1308931 -0.09833833 -0.24901325 0.6113198 -0.4961898 0.43810835 -0.3209358 0.2645247 -0.17453076 0.027921693 -0.06837507
american 0.51675075 0.17945597 -0.52155554 -0.38351458 -0.16986428 1.0487975 0.72712886 1.0789412 -0.67649543 -0.06636115 -0.75780416 0.9292862 0.7650195 0.7599579 -0.23511943 0.24320243 0.5245521 0.1334713 0.005407315 0.22250062 0.40968794 0.440223 -0.6724212 0.57361794 -0.1307916 0.056814842 0.21921077 0.017261317 -0.031492714 -0.02553082 0.15529174 0.21235444 -0.13016689 -0.8437595 0.13198268 -0.47137845 0.30695114 -0.51624167 -0.4299887 0.46596047 0.023855487 -0.20467094 0.13256595 -0.48776263 0.38100788 0.49684852 1.024458 0.64956295 1.0623794 -0.48780146 0.1686886 0.11901724 -0.16512834 0.21296087 0.6202621 -0.021936536 0.29651517 0.561797 -0.18771698 0.7709642 0.09622128 0.1789035 -0.9550677 0.2797932 0.17521372 0.3920839 -0.003410418 0.12359946 -0.3527148 -0.34737864 0.8133106 -0.02929833 0.11828501 -0.19320899 -0.025615737 0.16307965 -0.21218224 0.21868645 0.012991846 -0.47203556 -0.11830767 -0.29865015 0.118783265 0.47047725 -0.16787659 0.14445184 -0.062184997 -0.12564617 -0.060777042 0.43246022 0.040259846 -0.0666227 0.41568616 -0.2631218 0.41987374 -0.58491164 0.3897021 -0.058667492 -0.21635687 -0.27903715
http://www.co-ode.org/ontologies/pizza/pizza.owl#Pizza 0.53943926 0.32001662 -0.28403014 0.53766954 -0.39096802 0.43340853 0.96541655 0.2872507 0.15057684 0.6591627 -0.23613833 -0.6542092 0.40078074 0.30732086 -0.4020461 0.016174072 -0.16184838 -0.4189871 -0.1796943 -0.5875402 -0.43964833 -0.22291704 0.29232764 0.026012821 0.79904646 -0.17359671 -0.7660939 -0.67564625 -0.09070747 -0.56488734 0.43757585 0.030011944 0.6300459 -0.5650502 0.14931075 0.031898405 0.13459595 -0.7787015 0.1403232 -0.12606229 -0.07422561 -1.1169214 0.31490594 0.071310446 0.13623756 -0.022298172 0.58542836 0.8174475 0.715076 -0.19745404 -0.5565547 -0.7934437 0.26906154 0.8520117 -0.21056248 0.17727494 0.41341048 0.24498732 0.13298903 0.44784465 -0.35308185 0.10605429 -0.7094255 -0.12389846 0.32463902 -0.014008169 0.19760844 -0.19763349 0.26004097 0.42093033 -0.004782344 -0.7023042 -0.49233088 0.25288182 -0.18937835 -0.29715118 -0.008894858 -0.03696211 0.16474098 0.1717866 -0.38327336 -0.08055853 0.21869588 0.046933714 -0.22244559 -0.33029684 0.121900365 -1.0419393 -0.46354052 0.34457475 -0.21716872 -0.54622066 0.39990154 -0.18005286 -0.35927117 -0.42298022 0.104204424 0.32281896 -0.52400076 -0.90788317
four 0.35105944 0.35937488 0.2313795 -0.59972495 -0.42621353 1.3426119 -0.097634256 0.5789275 -0.12106206 -0.24061114 -0.68687487 0.52066416 -0.0037392178 1.4277446 0.009243243 -0.12662323 0.038874097 0.13598515 -0.5266388 0.3468965 0.1806127 0.41685584 -0.48444173 0.60900104 0.18679968 0.23657438 0.32411727 0.32390648 0.1718509 -0.24526563 0.027229054 0.011528687 -0.5281058 -0.24147858 0.2594635 -0.48242748 0.9608931 -0.54186565 -0.6104345 0.5330836 0.4295724 -0.087348856 0.6873718 -0.32782826 0.057624456 0.28857377 1.1406075 0.09000186 0.42159447 -0.093912385 -0.41089362 -0.23406802 -0.53068805 -0.45665586 -0.11287525 -0.489247 -0.36011815 0.6285829 0.66432995 0.8822099 -0.07326723 0.7102089 -0.43810982 0.32802284 0.09359389 -0.10760457 -0.55009794 -0.7486079 -0.074100636 -0.7500554 -0.18816188 -0.48705444 0.14395143 -0.32565138 -0.03731756 -0.25235406 -0.33569425 0.46461365 0.3895334 0.13715065 -0.17365213 -0.42848253 0.22350758 -0.11766954 0.12055088 -0.090472385 0.27350667 -0.6894999 -0.674891 0.05715939 -0.4215714 0.13510716 0.37965733 0.6012976 -0.031751473 -0.48351505 0.2719333 0.33764088 0.25948393 -0.7807546
giardiniera 0.43160418 0.73282415 -0.12495607 -0.53001094 -0.24143733 1.0362 0.25578 1.1766417 -0.2539141 -0.073945306 -1.265638 0.22631043 0.12011335 0.8277134 0.2201859 0.54283535 0.1866682 0.0059930617 0.031989302 0.32363182 -0.70158494 0.27458778 -0.1714334 0.29477996 0.7782199 -0.07113333 -0.12178741 -0.3335672 -0.7815654 -0.10005176 -0.08348229 0.28104705 -0.6766167 -0.006272354 0.35318848 -0.15020706 0.33227196 -1.0678601 0.2589051 -0.0999048 0.368049 -0.15678218 0.4292808 -0.3648869 -0.3284231 -0.19807872 0.3471186 0.40386114 0.39976683 0.19540927 -0.12660852 0.0077953776 0.036003713 -0.457686 -0.44051367 -0.11389048 -0.19649018 0.617568 0.08213716 0.23272131 0.108624816 0.105933465 0.028753335 -0.20909551 0.5259333 0.13217734 -0.51295274 -0.0145868 -0.48610345 -0.2870808 -0.22932413 -0.59975016 -0.4348958 0.479816 0.6000993 0.05274792 -0.5418874 0.17250562 -0.057782214 -0.8058234 0.6370323 -0.23424804 -0.14241827 0.655476 0.23163265 0.2882509 -0.34201872 -0.49614337 -0.13556324 0.06979624 -0.93932205 0.4753209 0.8052147 0.17079905 0.51104534 -0.31254113 -0.23016877 0.24784198 0.36239415 -0.10401628
cajun 0.12545855 0.19589654 -0.46390638 -0.2984706 0.051253393 0.8643292 -0.19443111 0.6423865 -0.15117227 -0.07842323 -0.46734026 0.46650514 0.11722851 0.6116496 0.29418156 0.39057535 0.046778288 -0.17464961 -0.02493281 0.41821596 -0.4657053 -0.51895344 -0.57294244 -0.05070233 -0.177736 0.38505402 -0.9981752 0.05815661 0.10541552 0.29116374 -0.13014959 -0.3892421 -0.19661921 -1.0348128 -0.036386807 -0.23359856 0.40811816 -0.4854016 -0.11035619 0.34117827 0.1864836 -0.15526934 0.46985486 -0.5481194 0.09525386 0.31732866 0.77811146 0.30181602 0.19794753 0.14993444 0.14598016 0.316513 -0.24542902 -0.57203645 -0.057893895 -0.10892361 0.8414254 0.11957736 -0.44927892 0.8951509 -0.6885511 -0.36610764 -0.29805782 -0.1475813 0.6609656 0.0017865389 0.29256406 0.24951924 -0.78797567 -0.24355291 -0.5812671 -0.19948527 0.19299315 0.30393767 0.34516165 -0.28890213 -0.28351292 0.11694178 -0.10368684 -0.5549695 0.14235793 -0.15628207 -0.52504027 -0.1272629 -0.3463641 0.4653528 -0.45202628 -0.73091877 0.29627103 0.1626203 -0.617062 -0.11365762 1.0630599 -0.03806248 0.64101946 -0.63859755 0.05310851 -0.2758734 -0.33569276 -0.2121723
veneziana 0.10600963 0.149921 -0.9102421 -0.26961407 0.18431135 0.34328958 0.66401094 0.71017474 -0.21452683 -0.1643648 -0.7033016 0.8018772 0.005135619 0.8017384 0.758439 0.290505 -0.18111965 0.53489035 0.2863577 0.19209088 0.3602383 0.24378265 0.17553668 -0.12201821 0.30616814 0.05713052 -0.2106051 0.047334086 -0.14761373 0.13605289 -0.41854963 -0.4575376 -0.40930173 -0.47935054 0.31835285 -0.68056715 0.26573527 -1.5459083 0.10526059 1.028026 0.47671464 -0.490695 0.40058404 -0.49775338 -0.08942573 0.27341476 0.46032685 0.41957405 0.25345698 -0.0026148641 0.032779925 -0.28021595 -0.18091244 0.28753173 -0.6715723 -0.18019208 0.28972715 0.30773038 0.060941346 1.2488583 -0.63389915 0.1161464 -0.4093867 0.041046552 0.21875061 -0.19820537 0.11359424 -0.66845864 0.037161995 -0.06407614 -0.25968727 0.008498601 -0.062480565 0.19057769 -0.1233031 -0.017606743 -0.3902044 -0.073344454 -0.1341861 -0.5918802 0.26363826 -0.3012932 0.2316639 -0.29064387 0.12315275 0.5306989 0.21608858 -0.5089464 -0.42902592 0.36488488 -0.34798598 -0.097310245 0.414816 -0.1608943 0.44238412 -0.7560362 -0.461273 0.3431725 0.063304715 -0.3833188
http://www.co-ode.org/ontologies/pizza/pizza.owl#TomatoTopping 0.31387824 -0.19997425 0.1462121 -0.2779141 0.03683538 0.43897006 0.6555115 0.21709521 -0.23177983 0.5371159 -0.70224166 -0.408595 0.3209525 1.1536696 0.048772432 0.48419628 -0.40365973 -0.8701399 -0.14504687 -0.34732231 0.1595588 0.36176747 0.094155945 0.462705 0.5408114 0.012958236 -0.15850805 -0.5462096 -0.051666524 -0.03935037 0.44886944 -0.53048027 0.35718533 -0.18537885 0.06254494 0.25045547 0.15155439 -0.6578458 0.4358875 -0.50105226 -0.3917722 -0.8726559 0.30025682 -0.28549463 0.26931983 0.5127104 0.6365389 0.104864985 0.7888041 -0.12027207 -0.030631853 -0.87218344 0.17989117 0.5785784 -0.37271214 -0.2498862 -0.08677707 0.31732035 -0.064298935 0.34267557 -0.8615161 -0.21398455 -0.60093975 0.3584785 0.116434544 -0.12419989 0.37901554 0.14956382 -0.1572864 0.04359354 -0.1808101 -0.014255422 -0.022129703 0.06764117 0.23819244 0.039349377 -0.07574816 -0.19772916 0.1259243 -0.010518085 0.06105767 -0.27506545 0.2430235 0.09382172 -0.33930603 0.1778746 0.044829715 -1.192022 -0.39022517 0.27313375 -0.3272228 -0.22935854 0.5679028 -0.24544775 -0.16334845 -0.57833725 0.004018361 0.5000796 -0.39379972 -0.36095852
http://www.co-ode.org/ontologies/pizza/pizza.owl#hasSpiciness 0.3702819 -0.57798374 0.30430242 -0.118696466 -0.09857991 0.16939667 0.30803308 -0.07803151 -0.21792442 0.42801595 -0.23276275 -0.741125 0.23046257 0.44214728 0.11908387 0.80986685 -0.21495025 -0.9363126 -0.74948686 -0.2680838 -0.4258162 -0.36619416 0.28762588 0.8876802 0.4944138 -0.09902506 -0.3300295 -0.8034195 -0.53035927 -0.5395689 0.37299588 -0.022372233 0.18876053 0.25144842 -0.3118698 -0.214472 0.16201387 -0.7508314 0.73126334 -0.0477596 -0.090659566 -0.6609032 -0.30016047 -0.04800925 -0.10575749 0.3027215 0.3526061 -0.0116779525 0.13403603 0.40826806 -0.1288432 -0.2067496 -0.25585377 0.34738028 -0.10570355 -0.12426947 -0.5639766 0.911485 -0.10410299 0.4606246 -0.20999843 -0.118970215 -1.2918298 0.67201155 0.44210237 0.35046455 0.59047884 -0.2152104 -0.73767006 -0.5423064 0.20064352 -0.7142158 -0.47422215 0.19772142 0.29899618 0.12317059 -0.3415177 -0.03731221 -0.031224815 -0.6024124 0.69380504 0.14687896 0.054017633 0.55847865 -0.039599333 0.44088048 0.13772833 -1.1975452 -0.45258573 0.6156256 -0.18642801 -0.043208826 0.89531064 -0.46560162 0.17707244 -0.9601047 -0.06480777 0.57004666 -0.5669396 -0.15139239
base 0.26863158 0.79202574 -0.9511095 0.38649347 -0.34425405 0.29207003 -0.14653042 0.15390326 -0.5248073 -0.092193484 -0.4396624 0.4848464 0.15415896 0.22903167 0.16538645 -0.33699584 0.09919128 -1.0060296 -0.57879615 0.114526816 -0.37116653 -0.32475543 0.063548915 0.6443011 0.52502793 0.47790226 -0.95322657 0.37207124 -0.17581752 -0.75258857 -0.08721755 0.70864916 -0.47253138 -0.25488642 0.1336506 0.09196354 0.1858354 -0.35513076 -0.15009207 1.0105572 0.2536891 -0.30631846 0.49609047 0.054446887 0.42888507 0.18166329 0.3797441 0.19152692 0.87427074 -0.07116315 -0.53257364 -1.0042707 -0.45612815 -0.103290305 0.34612113 -0.031393204 0.095132016 0.09668019 0.5754125 1.2263292 0.7952478 0.23855813 -0.13152148 0.09389644 0.34572813 -0.030994274 0.0021615275 -0.29805017 -0.11446591 0.20011055 -0.1608052 -0.65876013 0.08655389 0.15013404 -0.1358024 -0.6881962 -0.50336665 0.42036894 -0.21450041 -0.09679733 -0.13900779 -0.070271306 -0.12860124 -0.22178319 -0.21779278 -0.11081276 -0.46928626 0.37685612 0.11751487 0.36667088 -0.35756627 0.027232554 -0.29865047 0.008648321 0.31044403 0.2232075 -0.32469016 -0.12756892 0.15063533 -0.64943117
capricciosa 0.19264843 0.35222033 -0.39531067 -0.3858203 -0.22784258 0.853416 0.1519272 0.9011179 -0.6679474 0.03297243 -0.9233018 1.2074596 0.2840555 0.8942662 0.64324564 0.64838463 -0.37768155 -0.041806564 -0.18161833 0.72710425 0.001263884 0.04294465 -0.4600239 0.1682271 0.3402894 -0.032679506 -0.65609956 -0.13851707 0.056651317 0.31023112 -0.024551027 -0.37975818 -0.74421495 -0.35132483 0.22762346 -0.65888476 0.10799638 -0.98969674 -0.1737306 0.31688207 0.54852855 -0.26191634 -0.01986508 -0.24506822 -0.015601806 0.60487956 0.4189828 0.4390066 0.35104975 -0.34954086 0.14939101 -0.20168693 -0.30929968 -0.47577402 -0.1517515 0.03378956 0.0645274 0.43284732 0.047292937 0.70607686 -0.36044097 0.1398038 -0.06844108 -0.10702892 0.48618853 -0.22256139 0.20347346 -0.8233448 -0.4123929 -0.5538608 -0.14536205 -0.22276214 0.02409574 -0.13840848 0.27078772 0.21669006 -0.022331445 -0.065492466 0.25376073 -0.3747412 0.5884985 -0.36080852 -0.4728362 0.16810226 0.6459089 -0.08897783 -0.18686476 -0.6235933 -0.18458433 0.3259926 -0.6297298 0.32786247 0.50250447 0.09072778 0.2004221 -0.6149421 0.22451311 0.6325698 0.19142334 -0.23120163
siciliana 0.29275683 0.14465624 -0.7559062 -0.2111525 0.03782188 0.5996315 -0.35680142 1.0064965 -0.8949461 0.6103221 -0.8668781 0.93867975 0.3745128 0.57939816 0.6587475 -0.029295854 -0.8014756 -0.34595463 -0.10368946 0.10702277 0.21291164 0.1747615 -0.12981986 0.2527102 0.64985275 -0.04970219 -0.8271672 -0.31364816 0.17675406 0.13267894 0.011711807 -0.53572416 -0.75060725 -0.23930463 0.46264172 -0.9174658 0.02479004 -0.67833245 -0.07522997 0.24914095 0.5738699 0.008242287 -0.103678666 -0.5612696 -0.10621326 0.4449518 0.18380569 0.1578539 0.32462156 -0.3745895 -0.0979682 -0.18283795 -0.025639193 -0.33386123 -0.21756712 0.32030872 -0.04978088 0.17870574 0.29418918 0.84546465 -0.22841579 0.22649413 -0.07133089 -0.13423848 0.4477367 0.23230997 0.29696438 -0.78888375 -0.27811396 -0.51561534 -0.056263573 -0.60057664 0.24495241 -0.13430366 0.3544722 -0.12916331 0.053443186 -0.20204903 0.27203432 0.044172514 0.48933548 -0.4617857 -0.23703898 0.24794017 0.49753457 0.10202848 -0.044713896 -0.35325268 -0.15361895 0.7716094 -0.19351259 0.0452342 0.22801682 -0.01747004 -0.05424345 -0.5278675 0.5338546 0.048725188 -0.0044107875 -0.33327207
astra 0.08468634 0.19810914 -1.2851189 -0.03173953 0.32042214 1.1223664 -0.20500582 0.902702 -0.57788646 0.49340162 -0.7904478 1.0022737 0.7262312 0.29612967 0.21761411 -0.09429506 -0.034157507 -0.5833984 0.063932166 0.070571065 -0.19934604 -0.23593518 -0.009864103 0.43801132 -0.4005962 0.70552886 -0.81950057 -0.062196717 0.1606898 0.0951584 0.5429604 0.3421371 -0.33433563 -0.2226639 -0.07430196 -0.61240596 0.023132877 -0.7285131 0.283164 0.84706837 0.025688684 -0.23854445 0.42310742 -0.7554474 -0.006675059 0.6111327 0.46120456 0.38775054 0.5674051 0.19393349 0.28863442 0.40198225 0.47427756 -0.41398174 -0.54078966 -0.10539612 0.30178624 0.057113808 -0.43744656 0.7958302 -0.71475357 -0.12916669 -0.70742637 0.23467222 0.56283534 0.19921017 0.46948904 0.1890462 -0.14076447 -0.85551435 -0.39389855 -0.9314839 0.22028482 -0.17212607 0.002519494 -0.41336086 -0.074474655 0.53549266 0.010072632 -0.49934292 -0.16885376 -0.62012786 -0.20614906 0.4631886 0.25656667 0.2475057 -0.6833377 -0.99166673 0.22452302 0.6387572 -0.5756988 -0.5105956 0.024364894 -0.033849 0.80154043 -0.6316264 0.37103465 -1.0408148 -0.81128645 -0.6855193
pollo 0.61214256 0.05197711 -0.66337645 -0.5111785 -0.34721112 0.9900792 -0.36124957 0.6052167 -0.5058253 0.38384134 -1.000582 0.6561563 0.3746771 0.12550713 -0.2075993 -0.46158117 0.047533147 0.064922296 0.3005572 0.5067941 -0.5051236 -0.38210422 -0.28520203 0.07222495 0.07741538 0.5082849 -0.7468486 -0.24901676 0.29056767 -0.27430353 0.5690294 -0.10999195 -0.15068372 -0.24635184 -0.1797043 -0.3052501 -0.23271567 -0.4979993 0.54184526 0.8306609 0.44515216 -0.69140565 0.43805724 -0.9691073 -0.015396477 0.18155932 0.80895007 0.16830121 0.3341775 -0.011550935 0.23935871 -0.14036289 -0.13249096 -0.33347368 -0.28463396 0.13154571 0.1504529 -0.21980192 -0.16514651 0.6249037 -0.43546194 0.026054349 -0.6948737 0.19229577 0.59165317 0.4875775 0.28866202 0.27602986 -0.6883192 -0.53262144 -0.74761707 -1.1483852 0.46841335 -0.027728092 0.07813406 -0.22787629 0.077715576 0.40021607 -0.38839665 -0.9302304 0.19973788 -0.4205354 0.30340073 0.2537324 -0.17162798 0.015751323 -0.43781388 -0.79105896 0.026885057 0.8439472 -0.2859186 -0.16803329 -0.006879885 -0.3045957 0.57401603 -0.09926963 0.4743557 -0.85366315 -0.47654068 -0.14486289
seasons 0.5406862 0.8712396 -0.3454606 -0.65227056 0.33680066 1.1661268 0.36106172 1.3767717 -0.69846916 0.37041625 -1.0354779 1.054787 0.06040855 1.0708066 0.56335205 -0.18456578 -0.47364527 0.35112116 -0.21275762 0.35830536 0.23989768 0.30774847 -0.28237048 0.70462614 0.52472013 0.2227424 -0.08197056 -0.23820508 -0.031506713 -0.15339373 -0.07539071 -0.46213272 -0.3643469 -0.061155725 0.14380668 -0.25823903 0.6059654 -0.9168572 -0.2873316 0.22403204 0.35740638 -0.52438897 0.478407 0.1720095 -0.16764404 0.43783608 0.50987196 0.35151398 0.8548115 -0.5292912 -0.2273704 -0.18146941 -0.11025236 -0.11973958 -0.1443839 0.1699126 -0.21000385 0.5747772 0.19142297 0.47711223 0.5782379 0.83911484 -0.40119317 -0.1008703 0.3288296 0.26742664 -0.017696396 -0.5089869 -0.30708563 -0.5205085 0.18525393 -0.44844916 -0.27830297 -0.5658006 -0.48280323 0.06365301 -0.10439787 0.4769798 -0.18010542 -0.7936484 0.14994511 -0.53656185 0.24338897 0.3421994 0.30101916 -0.03299896 0.03870466 -0.61212754 -0.13703644 0.37333196 -0.004367957 0.32943305 0.13551396 -0.09852398 0.36177382 -0.7444699 -0.14961186 0.54540175 0.42025587 -0.52831024
ad 0.07812647 0.57778907 -1.138019 -0.2857867 0.11095898 1.0941428 -0.16804585 0.58067954 -0.84078896 0.120703466 -1.2258594 0.9206033 0.49977234 0.3408 -0.17122573 -0.10822996 0.09872984 -0.7545458 -0.3306244 0.33458906 -0.75690275 -0.39105865 -0.15479411 0.14682843 0.039753903 -0.110450394 -0.7066076 -0.19191971 0.49873474 -0.101931475 0.50104487 -0.20796902 -0.3085609 -0.5888868 0.03354953 -0.64811844 0.2779565 -0.5836587 -0.0016504849 0.39684978 0.15853716 -0.35879472 0.36255327 -1.1675439 0.008639097 -0.41827905 0.35597828 -0.28192046 0.15111336 -0.01771264 0.070904456 0.1936588 0.22138588 0.14986213 -0.4062894 -0.0832097 0.49956813 0.19702569 -0.029184408 0.9494682 -0.7298187 -0.42139733 -0.48969752 0.053485394 0.7233711 0.13711576 0.44726917 -0.040608652 -0.23334749 -1.0147958 -0.44588402 -0.5911861 0.22565834 0.36837515 -0.013924221 -0.6974569 0.39501724 0.51565737 -0.4529212 -0.4321107 0.28718147 -0.51450866 0.4159154 0.41857663 -0.10358951 0.4363458 -0.54977435 -0.2987124 0.2851547 0.92120725 -0.16345215 -0.6165568 0.06799616 -0.06450898 0.64030516 -0.40936276 0.32246476 -0.8586067 -0.24050564 -0.4605981
vegetable -0.18526548 0.47210005 -0.08052206 -0.5980404 0.12726519 0.047134854 -0.34641832 0.76714516 -0.06391308 0.31365076 -1.6284528 0.58244246 -0.23818822 0.6727087 0.6886731 0.44855648 -0.09611462 -0.37657854 0.4990705 0.07906187 0.036528144 0.19641013 -0.20174049 -0.47335628 0.8640041 0.33112878 0.1070055 -0.37774 -0.02617216 0.29198363 -0.0800906 -0.44657832 -0.63438547 0.43215114 0.8956911 -0.13296658 0.60155433 -1.0560591 0.11782755 0.8339766 0.48044968 -0.18643527 0.05947105 -0.50924164 0.054972213 -0.27478614 0.06548565 -0.17600335 0.7913352 -0.5044967 -0.16721305 -0.007946331 0.2304711 0.0653888 -0.38068914 -0.05258055 -0.113958634 0.5128797 0.18853289 0.39864767 -0.130662 0.058822464 0.08909881 0.1271267 -0.21202587 0.51270056 -0.5520245 -0.4435475 0.31397343 -0.4594935 -0.25096503 -0.66452205 -0.15398124 -0.08261373 0.5514032 -0.297909 -0.036685962 0.4147356 -0.11864344 -0.46524593 0.43793517 -0.30645958 0.041082174 0.2533656 -0.31395942 0.7442585 -0.3833604 -1.1689999 -0.6833823 -0.13838142 -0.36309728 0.197988 0.34158692 -0.3592817 0.2695798 -0.18882588 -0.09533763 -0.21238568 0.006356815 -0.5242331
mushroom 0.6580473 0.8090102 -0.32616442 -0.49379364 -0.33933225 1.0153847 0.124189 0.90877306 -0.24009494 0.06596254 -0.94117695 0.66434145 0.4075338 0.8522389 0.43451542 -0.41082954 -0.31428668 -0.37810978 -0.24523985 0.31562915 -0.67251897 0.18933608 -0.14132175 0.7814073 0.15743802 -0.024275722 0.14745009 0.27958572 -0.30903667 -0.5684497 0.055751033 0.28180197 -0.39149323 -0.1559322 -0.08616057 -0.27008355 0.7876524 -0.71837765 0.040144622 0.2270332 0.10922333 -0.43365604 0.7570932 -0.1487991 -0.36466318 0.05929943 0.42357334 0.21306449 0.59670293 -0.46356413 -0.23880646 -0.090826094 -0.36993015 -0.38094878 -0.23620373 -0.06844525 -0.7215953 0.11551453 0.290768 0.25098836 0.045618396 0.16425122 -0.27321702 0.051586095 0.17269869 0.21178903 -0.25301635 0.12907694 -0.8079848 -0.15277413 -0.12132103 -0.6287262 0.31189084 -0.21090817 -0.1666017 -0.3422498 -0.4157199 -0.12002207 -0.109464385 -0.34933197 0.30348927 0.010506179 0.2705006 0.48155695 -0.09283955 0.22399199 -0.16619964 -0.20563984 -0.0333064 0.097180985 -0.37279114 0.27052927 0.2113252 0.2683643 0.26762885 0.012814532 0.21063559 0.09086949 0.5620563 -0.3734153
vegetabletopping -0.113237716 0.465064 -0.15810603 -0.55342144 0.12628539 0.05335492 -0.34941667 0.6811247 -0.047180258 0.17906235 -1.5115114 0.6908389 -0.22223648 0.42735794 0.76477385 0.42729303 -0.08120983 -0.46003538 0.43921465 0.074618965 0.026110258 0.12571804 -0.20292129 -0.38009945 1.0680546 0.31965327 0.021335028 -0.30480418 -0.08569706 0.15738818 -0.21139225 -0.26549825 -0.76861703 0.36780158 0.7763385 -0.1412451 0.5622624 -0.8064014 0.01798325 0.996315 0.40242264 -0.19172351 -0.063453555 -0.30852365 -0.03325377 -0.3811722 0.08912539 -0.059329674 0.869259 -0.5640954 -0.15631962 -0.03464052 0.0734658 0.16565785 -0.33923814 -0.13698207 -0.075530246 0.46518806 0.18560714 0.2958241 -0.14143133 0.09001007 0.28083768 -0.012023002 -0.20270085 0.5345084 -0.71320635 -0.5328134 0.19672789 -0.40427583 -0.31582928 -0.78754073 -0.11487229 -0.052282687 0.51050746 -0.3571808 -0.117772855 0.41848758 -0.16135097 -0.4741827 0.39792413 -0.43394056 0.17456435 0.1360366 -0.39825547 0.8140532 -0.4206607 -1.1172202 -0.6209952 0.12870128 -0.53578806 0.107570305 0.3797196 -0.35221288 0.30130556 -0.2335162 -0.15624033 -0.10514811 -0.11365672 -0.8692719
http://www.co-ode.org/ontologies/pizza/pizza.owl#MozzarellaTopping 0.48409203 -0.19965397 0.027580183 -0.08574224 0.07860381 0.52112174 0.62632984 0.11388903 -0.16972773 0.640201 -0.753542 -0.5149373 0.28393066 1.3063753 0.0824741 0.3947951 -0.3187196 -0.8200001 -0.1902054 -0.330755 0.28105274 0.28947937 0.0057384796 0.38511124 0.6043987 0.0179616 -0.352716 -0.49074388 0.0071091587 -0.22976601 0.451206 -0.50139725 0.5444146 -0.22935186 0.1441356 0.3412115 0.21258965 -0.7519261 0.25378588 -0.29006806 -0.2873225 -0.7190478 0.43018514 -0.19695036 0.24564512 0.54441285 0.42066866 -0.06318326 0.8671968 0.038652875 -0.40527868 -1.0286971 0.155943 0.46310297 -0.2985631 -0.14257498 0.011587863 0.046847258 -0.09828605 0.61899817 -0.7669222 -0.21427701 -0.6251945 0.273623 0.08916279 -0.1410501 0.3327046 0.11894203 0.16982901 0.37116212 -0.21314867 -0.067238465 0.099046886 0.0075220168 0.1999301 0.066479616 0.011115885 -0.00049198425 -0.107602045 0.049738392 0.12911415 -0.4599144 0.15732865 0.022770625 -0.30358812 0.013352483 0.1137497 -1.0700774 -0.30021617 0.27556136 -0.1971429 -0.026517963 0.22898129 -0.19492587 -0.1920321 -0.34850696 -0.19989836 0.37578365 -0.12141686 -0.33890915
some -0.08357744 0.17191967 0.73278064 0.14744647 -0.5759093 -0.11362041 -0.1385259 -0.1961667 -0.64352983 0.5956835 -0.51215374 0.044812463 -0.15047356 0.85406786 0.51653576 0.4301777 0.25921878 -0.9290683 -0.25255698 0.19103143 -0.006417057 -0.0076166606 -0.32371596 0.6967269 0.07216645 0.08079283 0.24244913 -0.5293445 0.25775898 0.36851043 -0.06870399 -0.34577674 0.0058119697 0.62263 -0.30800113 -0.043763626 -0.17392951 -0.4906405 0.34918308 0.5847914 -0.40396187 -0.307696 -0.04328334 -0.048936356 -0.19827844 0.6198106 0.5190681 0.051765364 0.013336295 0.088421516 -0.5229162 -0.14255795 -0.55953914 -0.26697576 0.10988228 -0.4728046 -0.43573818 0.72895676 0.38924456 0.77745044 -0.14531645 -0.5871526 -1.3273836 0.5080687 0.18064375 -0.32229123 0.5835895 0.024393957 0.34742722 -0.07888916 -0.0588252 -0.5369502 -0.031899266 0.21643312 -0.09938962 -0.062174704 -0.14865053 0.33535463 -0.63884276 -0.5118644 0.06105634 0.14865252 -0.23505342 0.22946335 0.1019417 0.13714446 -0.40539974 -0.92374396 0.22345535 -0.12378483 0.26934564 0.074633576 0.10770358 0.053585447 0.3116212 -0.41156194 0.1943349 -0.020613987 0.35916102 0.103299536
fiorentina 0.3261015 0.2900113 -0.7343113 0.060130376 -0.12890734 0.42840743 -0.2976458 1.0450181 -0.70280313 0.34219596 -0.85324454 0.6419031 0.24191813 0.6162912 0.4696587 -0.22179343 -0.19755127 -0.054428976 0.01587767 -0.25554764 0.087558866 0.8295295 0.44005707 -0.02497498 0.59670573 0.15871923 -0.8639016 -0.21873656 -0.22059238 0.3225463 -0.17165247 -0.4059682 -0.43821675 -0.20877142 0.489659 -0.6948494 0.24080244 -0.7768213 -0.036890067 0.45610023 0.2452619 0.17576388 0.385812 -0.65045804 -0.5060449 -0.03538166 0.3048014 0.042383164 0.051529706 -0.108473614 -0.27143657 -0.21137168 0.12656465 -0.3467639 -0.45165673 0.3456812 -0.09847059 0.13750951 0.21992673 0.99999887 0.24776275 0.16368034 -0.21081495 0.4116106 0.47173685 0.5883096 0.014919163 -0.5453276 -0.21241947 -0.43648493 -0.39622185 -1.0253195 0.009791179 0.09734528 0.33375818 -0.30071023 -0.51002157 0.082614 -0.08694518 -0.35331017 0.37451366 -0.39184597 -0.076965764 0.36011326 -0.021760736 0.58943987 -0.20721386 -0.5032879 -0.6057765 0.7320908 -0.19957128 -0.05185523 0.5326027 0.03410385 0.33862898 -0.43033248 0.10757038 -0.29210773 -0.32655036 -0.25071844
soho 0.41571894 0.17744727 -0.84643835 0.1808584 -0.044393323 0.50916713 -0.25261295 1.0653789 -0.69067174 0.47034657 -0.85916126 0.6844437 0.19470258 0.7677794 0.5923576 -0.072235346 -0.20111918 -0.07840539 -0.035810083 -0.269021 0.15928628 0.67888784 0.42984012 -0.1005394 0.48866346 0.04327013 -0.6547886 -0.20286588 -0.33171746 0.34401068 -0.07166403 -0.4055209 -0.49038017 -0.30945998 0.54844654 -0.7477781 0.18986687 -0.89093834 -0.07444333 0.56576777 0.25397003 0.2859646 0.22271338 -0.6529975 -0.39870706 -0.01716537 0.20907058 -0.055942003 0.063136466 -0.0921358 -0.37466744 -0.31221968 0.22122516 -0.27649206 -0.47136807 0.36296642 -0.048161156 0.1244044 0.2361014 1.0265651 0.35708413 0.18913896 -0.333546 0.36606324 0.6484781 0.5160834 0.030042695 -0.6068745 -0.12736706 -0.30048662 -0.3497277 -0.9342367 -0.22665067 0.24346794 0.21112956 -0.32814282 -0.54908305 0.17634444 -0.1236287 -0.4990253 0.3600363 -0.08544066 -0.13095695 0.19783577 0.08108086 0.45957032 -0.32959783 -0.42876637 -0.58761525 0.665328 -0.25990734 -0.028598871 0.60147434 0.0065235575 0.41748336 -0.5765157 -0.0001106864 -0.36202264 -0.1809281 -0.12200753
napoletana 0.2979407 0.2753343 -0.5987185 -0.2854596 -0.012852492 0.86714035 0.34436643 0.881827 -0.6421169 0.03166532 -0.79901844 0.78275967 0.054446395 0.7891792 0.665134 -0.25531784 -0.32700714 0.37586647 -0.1495519 0.20204824 0.43189016 0.55214727 -0.026321517 0.45757827 0.3151706 0.099921905 -0.5960281 -0.11031521 -0.021975156 0.14607893 -0.45412862 -0.32386473 -0.8265715 -0.37520805 0.28077757 -0.62972224 0.46114576 -0.98648965 -0.17327976 0.8964671 0.39494646 -0.21255952 0.24996324 -0.21549724 -0.22081675 0.7910524 0.7582593 0.35041472 0.2765613 -0.27238047 -0.36719552 -0.45118874 -0.49029988 -0.03023284 -0.24338393 0.078913555 0.24004887 0.31946042 0.15621473 1.1550682 -0.15491484 0.2745119 -0.23872164 0.0821796 0.2691549 0.022220036 0.26633853 -0.9351407 -0.2792483 -0.33520216 0.05718374 -0.41731882 0.12411365 0.08991545 -0.21543121 0.055412058 -0.55597913 0.19985722 0.022778088 -0.30729732 0.35272387 -0.52313983 0.029823586 -0.08299176 0.203526 0.004815394 0.30991516 -0.5450947 -0.50557727 0.32670268 -0.10754893 0.046597738 0.21801722 -0.05950932 0.07741016 -0.545533 0.19228975 0.33784902 0.06906861 -0.31248915
olive 0.3731082 0.45421255 -0.26395777 -0.3876887 -0.260871 0.55453783 0.058641206 0.6628338 -0.6163296 0.33378997 -0.9745958 0.5575643 0.61124736 0.9541554 0.6959502 -0.4543492 -0.63633883 -0.7769496 -0.28146434 0.4038231 0.0052546924 0.32483274 -0.11515525 0.54541665 0.42228186 0.17871901 -0.28045407 0.32720977 -0.23231383 -0.02996168 -0.07598798 0.0051697395 -0.638534 -0.0034465343 0.27249676 -0.19381708 0.5012307 -0.8360827 -0.09593853 0.4122088 -0.07232372 -0.57929474 0.85078365 -0.009674119 -0.4047038 0.456703 0.08022541 0.02647 0.19710164 -0.30210873 -0.29425296 -0.89806753 -0.1523027 -0.3391604 -0.5045671 3.705486e-06 -0.44731483 -0.054921303 0.24522695 0.85716957 0.16536316 -0.06841491 -0.024137847 0.418843 0.3571577 -0.16193955 0.24973403 -0.19107617 -0.7511447 0.22353837 -0.44511634 -0.6664714 0.32876262 0.024630077 -0.30730948 -0.026325963 -0.4638163 -0.14297737 -0.116942756 -0.23270552 0.65147656 -0.40291667 -0.13878854 0.28974986 0.0026067826 0.13299309 -0.06448954 -0.2381647 0.081311695 0.22073703 0.28056577 0.29255748 0.30524114 0.1063695 0.1765746 0.06700619 -0.1825624 0.12582344 0.5654433 -0.05818263
SubClassOf -0.02351897 -0.46593934 0.45953232 0.10344102 0.17952283 0.81398904 0.30394915 0.11351807 -0.01768768 0.16710868 0.10635908 -0.107853584 -0.026065553 1.053868 0.019482592 0.552621 -0.32457256 -0.19822866 0.0022437428 0.12448573 0.27698633 -0.014326776 0.2299643 0.48315173 0.52454513 -0.15765274 -0.2853744 -0.26268646 -0.30809045 -0.57949525 0.556277 0.5158783 0.092140704 0.094994605 -0.16345966 -0.10176028 0.18430038 -0.8395619 0.47550115 -0.3628635 -0.334856 -0.20818807 -0.1560115 -0.20585886 -0.072803766 0.54463345 0.5801015 -0.06549879 0.10275582 0.27009296 -0.27677718 -0.7157994 0.14500952 0.5770271 -0.5242185 -0.11852703 -0.17138226 0.68734735 -0.05163808 0.5938501 -0.13145533 -0.13039765 -0.7668471 1.0241387 0.04535621 0.20658883 0.12844582 -0.08101841 -0.20459206 -0.28882337 -0.14204985 -0.5332953 0.18477766 0.29079714 0.07281316 -0.27154315 0.044209056 -0.029262934 -0.4536926 -0.0801944 0.41857746 0.057565086 -0.34364656 0.56565934 -0.15707149 0.09388552 0.5669265 -0.9755616 -0.4668709 0.5000162 -0.03371371 0.37294585 0.34829858 -0.23461182 0.45895007 -1.0350715 -0.14342524 0.6075974 -0.13331392 -0.3517387
country 0.025365075 0.48361066 -0.47793326 -0.15416221 -0.60749525 0.1885088 0.14664747 0.5957793 -0.3954202 -0.37614536 -0.31465188 0.92541575 0.62422055 -0.18848418 0.008725359 -0.25677496 0.06443617 0.029083692 0.2929415 0.025949556 0.11706749 0.13030903 -0.13494876 0.5462094 0.3031657 0.74827015 -0.48411268 0.334683 0.087425806 -0.18060052 -0.11560102 0.14166631 -0.2728563 -0.6609965 0.5250082 -0.47013494 0.16925906 -0.5247301 -0.45446324 0.89369625 -0.035881393 -0.7152592 0.36925265 0.12822777 0.48166192 0.32906094 0.48666102 0.5795597 0.46331555 -0.05691792 -0.35299516 -0.20523635 -0.8656996 0.31374687 0.32016918 -0.0028327825 0.3742049 0.09639137 0.27352282 1.6874644 0.19220729 -0.36278698 -0.772942 0.7750406 0.036569424 -0.46296594 -0.01177302 -0.19698426 -0.3584508 -0.46190903 -0.07605913 -0.49939483 0.2230432 -0.30490556 -0.34711954 -0.48910594 -0.8334045 0.22750987 -0.9138178 -0.4823686 0.6660455 0.17591546 0.12381364 0.37868634 0.37824115 0.5433969 -0.10430079 -0.25837556 0.24051696 -0.035091158 0.26856667 0.37904647 0.19684331 -0.08586046 0.30195647 -0.020298366 0.21995291 0.7888974 0.09811274 0.14511585
prince 0.405717 0.13651082 -0.4626068 0.07446722 -0.07737448 0.6842927 0.3221149 0.7327439 -0.63905084 -0.09839522 -1.1259288 0.0020401506 0.2174964 0.7193571 0.5384579 -0.0093509 0.45913592 0.31288898 -0.5439087 -0.4062001 -0.021491794 0.7948216 0.5991774 0.37695894 0.19976887 0.22632231 -0.33013192 -0.23749827 -0.5131276 0.04562916 -0.5429264 0.07074372 -0.34993795 -0.81055504 0.19894981 0.029240603 0.5850039 -0.9590993 0.49743772 0.9713327 0.37724984 0.066363715 0.94443786 -0.2533559 0.106310226 -0.17294583 0.71494883 0.64495915 0.65347344 0.10904365 -0.38194245 -0.024636252 0.08572108 0.012985288 -0.0601975 -0.05039919 -0.1950153 0.26779938 0.120484255 0.13403092 0.5881511 -0.46778017 -0.47914785 0.40651122 0.69142735 0.9124653 -0.1900438 0.23884706 -0.115414836 -0.50126606 -0.5559005 -0.7173481 -0.30936146 -0.04908061 0.5927702 -0.3742698 -0.74788815 0.510568 -0.43189907 -0.83797944 0.11897202 0.11983944 0.2044471 0.59505457 0.2003488 0.6288461 -0.6517593 -0.07186365 -0.65598047 0.33350188 -0.25737476 0.03938026 0.5540015 0.23458818 0.73745877 -0.41188267 -0.312744 0.133041 -0.9474927 0.19786038
carlo 0.1671879 0.6525578 -0.92312366 -0.113586515 -0.17940794 1.0913109 0.2690443 0.708904 -0.90690786 0.21070169 -0.37842414 0.57252556 -0.064965926 0.6814444 0.2675477 0.3218338 0.11770888 -0.5218567 -0.2136089 -0.5700363 -0.1690901 0.7329176 0.67259306 0.28003058 0.69787014 0.08605305 -0.29478267 -0.5901864 -0.5905091 -0.015330503 -0.18058364 0.11671183 -0.111595206 -0.008185948 0.20971563 -0.38589284 0.7624008 -1.0486124 0.2951233 0.6773847 0.37657613 0.032047596 0.92185223 -0.6492645 -0.07744633 -0.001388307 0.5821179 0.28085345 0.3823663 0.31699875 -0.3973274 -0.16359861 -0.20226702 0.04264186 0.24236992 0.47088233 0.2306599 0.7706926 -0.31758282 0.21360196 0.49472633 0.16248041 -0.32097653 0.81552976 0.39535108 0.48251054 -0.486691 0.32263756 -0.2805876 -0.7798045 -0.18938348 -0.64169234 -0.30471987 -0.18621624 0.9073744 -0.15188128 -0.92062867 0.09349667 -0.32968074 -0.64916956 -0.34830222 0.4989566 -0.024962038 0.32163432 -0.47057983 0.74390996 -0.7461696 0.306692 -0.47461715 0.6160366 -0.850046 -0.5448536 0.83909184 0.39290482 0.5218793 -0.9658981 0.1694608 -0.14744437 -0.2179002 0.39192733
olivetopping 0.35884002 0.70126396 -0.22340788 -0.10281505 -0.54958564 0.53726935 0.26740566 0.69067067 -0.5070328 0.5285569 -0.80970216 0.79319906 0.7277069 0.95851153 0.49910864 -0.60526973 -0.60795575 -0.7148678 -0.11467263 0.34869075 -0.30722624 0.22018766 -0.0162659 0.42171332 0.42158538 0.114208035 -0.41803238 0.57485014 -0.11966516 0.09763494 -0.13331954 0.11761915 -0.67582536 -0.06390871 0.376192 -0.14166577 0.52051055 -1.1107786 -0.17966644 0.5821588 0.17013016 -0.59211093 1.0441258 0.0344696 -0.28148395 0.38690343 0.22690988 0.21906695 0.1625643 -0.44935763 -0.536132 -0.9318435 -0.31393346 -0.14390819 -0.40462378 -0.27080444 -0.5055857 -0.173156 0.41266212 0.87416804 0.43411833 0.14371079 -0.083878644 0.20135207 0.38185218 -0.4154985 0.07697155 -0.2740572 -0.5785763 0.20858769 -0.5068515 -1.0123897 0.36562955 0.009599391 -0.5132366 -0.29902613 -0.51160455 -0.10989382 -0.07024233 -0.13052523 0.6080165 -0.3093115 -0.07053264 0.32654363 0.10287499 -0.00053669757 -0.13905329 -0.04265482 0.2538616 0.045918226 0.15889327 0.23279274 0.33240503 0.09108373 0.067072324 0.06628142 0.028144564 0.013360363 0.42830428 -0.2718305
giuseppe 0.73194903 0.3324995 -1.370418 -0.20614876 0.01923236 0.910583 0.009046266 0.4963268 -0.24363925 0.4235393 -1.1480513 0.96281064 1.101572 1.0627618 0.1479134 0.5742437 0.36499187 0.13468733 0.45066008 0.30356172 -0.44238818 0.048169687 -0.26597777 0.36069164 -0.12073572 -0.3712024 0.082813695 -0.49359682 -0.42251688 -0.55779904 -0.09873968 0.29521498 -0.32817513 -0.6997116 0.25852647 0.013338417 -0.11494678 -1.0547012 0.1537085 1.4221748 0.28608695 -0.7084645 0.49384975 -0.5111652 0.12521441 0.69015384 0.48175803 0.26379377 0.67832243 0.20072983 0.35915008 -0.0039025445 -0.1798835 0.31600633 0.21800934 -0.41546363 0.0017477458 0.4415127 0.10849416 0.6057932 -0.22704008 -0.4898721 -0.3961754 -0.29948974 -0.055576563 0.4390614 -0.4316241 -0.12240534 -0.39936277 -0.676985 0.51928973 -0.1378879 -0.022166602 0.014688904 0.26447675 -0.37810796 -0.052705966 0.5388258 -0.19782206 -0.7825572 0.021892069 0.49455023 0.09396012 -0.33896518 -0.39266023 0.7103975 -0.54638946 0.008132859 0.20156427 0.505593 -0.7529642 0.04747331 0.83855677 -0.23643269 0.8860553 -0.7536051 0.07236152 0.06539384 0.07216447 -0.043189753
sloppy 0.18948893 0.82438695 -1.290981 -0.2977251 0.0373059 0.21304111 0.47839755 0.84927976 -0.3899421 -0.19420928 -1.1574134 0.28351718 0.7205646 0.7296144 0.30501655 0.43373936 0.4571295 -0.5143602 0.45690802 -0.09048803 -0.50036514 -0.37515822 -0.5090329 0.6749869 -0.27076256 0.10291439 -0.1599758 -0.75363934 -0.15604676 -0.35186473 -0.2161898 0.04218069 -0.24903686 -0.64581174 0.5328639 -0.021538934 -0.006739764 -0.94388515 -0.2748431 0.8755489 0.34997395 -0.5684376 0.3757335 -0.32803398 0.34229693 -0.04649064 1.0041901 0.8692805 0.79086274 0.47345707 0.50614524 0.22702515 -0.50498265 -0.027292358 -0.22660968 -0.40993133 0.50597984 0.84912205 -0.018558769 0.7979628 -0.4836347 -0.28332695 -0.11238151 0.14850223 0.2056614 0.1400786 -0.37291518 0.2769751 -0.13667154 -0.084750205 -0.08877776 -0.119167544 0.55680645 0.0540941 0.06982248 -0.38131243 -0.30956677 -0.04179299 0.06606732 -0.930106 -0.4268432 0.28461874 -0.18624106 -0.005875879 -0.307536 0.21464117 0.11333649 -0.4100307 0.07809797 -0.0679763 -0.46407163 -0.09272976 0.82931864 -0.37308082 0.4015868 -0.7565628 -0.23354909 0.16465586 -0.05101232 -0.50021434
parmese 0.2700765 0.23726328 -1.0911341 0.19429271 -0.3703748 0.26777506 0.044009004 0.73444635 -0.8162357 0.38725448 -0.8621511 1.0984169 0.6253387 0.5753217 0.6961708 0.5746408 -0.14705293 -0.30489063 -0.02171646 -0.31613183 0.023074135 0.47151053 0.33786663 0.21116194 0.6145655 -0.39976102 -0.45677322 -0.27706552 -0.47634688 0.07709046 -0.2688597 -0.023248976 -0.3379481 -0.40329134 0.37851876 -0.81709963 0.062206667 -1.216492 -0.0076162517 0.324569 0.5244571 -0.07207246 0.27439302 -0.47209758 0.05025475 0.22186543 0.0676016 0.38066652 0.4855418 -0.1692709 -0.014745037 -0.19040725 -0.20686162 -0.12026947 -0.014827398 0.4961045 -0.4389594 0.28343967 0.35326397 0.2673483 0.14125058 -0.3286671 -0.33655748 0.015797798 0.3431288 0.45731163 -0.4520278 -0.30113667 -0.29841444 -0.47986865 -0.30381745 -0.44845214 0.15416196 -0.01707422 0.8394382 -0.09765342 -0.38528872 -0.8591246 -0.07531215 -0.28927994 0.19702251 0.32144606 0.038439725 0.4430922 0.21374325 0.8013086 -0.5155715 0.4356899 -0.47188985 0.7362553 -0.30376118 -0.040033832 0.5949319 0.33283415 0.29158568 -0.5421782 0.429891 0.409814 -0.59320927 -0.0007162361
vegetarian -0.2596683 0.22499588 -0.062790684 0.08782831 -0.292546 0.40093914 -0.47382542 0.5675012 0.264034 0.40120178 -0.19172755 0.46996537 0.21934704 0.9478612 0.13083814 -0.063392214 -0.24255554 -0.25318298 -0.55876607 0.2783508 -0.46579802 -0.16757903 0.094422154 -0.47474164 0.08465174 0.4189594 -0.99779624 0.3874752 -0.5182887 -0.10196708 0.014533156 -0.38772124 0.50532 -0.47117957 -0.10395112 0.26769227 0.6273427 -0.8435713 -0.28518793 0.25143653 0.59783155 0.30022034 0.9186634 -1.1870216 0.64146376 -0.35307735 -0.29788107 0.14308608 0.8759311 -0.6587099 -0.31301236 -0.06450072 -0.45973876 -0.045892954 -0.5602818 -0.24456327 -0.24639636 0.19781794 0.33207354 1.3566412 0.048552413 0.05650551 -0.5365195 -0.20575349 0.8563005 0.36569026 -0.03163706 0.7326398 0.23603152 0.10603799 0.12337024 -0.38860297 0.38231313 -0.40286773 0.3924051 -0.5309612 0.56142443 -0.41257757 0.20238902 -0.2131023 -0.30671304 0.2814893 -0.022092797 -0.09498983 -0.32462266 0.34219417 0.21450253 -0.6048308 0.09629462 0.0819782 -0.116926946 0.069143094 0.321393 -0.086380936 0.35142785 0.015847443 -0.63158107 0.33857808 -0.25869638 -0.05924656
la 0.7873142 0.123225324 -1.0286683 -0.07669004 -0.42518014 0.35230687 0.103788316 1.3230835 -0.4404423 0.54123235 -1.5705354 0.9643857 0.4328869 0.8316338 0.60286516 -0.2531812 -0.42937312 -0.5257504 0.1024769 0.49445704 -0.46571624 0.28647983 0.12803641 0.784065 0.8406421 -0.3950538 0.076646395 -0.04838096 -0.5289831 -0.4038529 0.104450434 0.0943732 -0.7782128 -0.24317102 0.6965398 -0.6247227 0.14338952 -0.83117163 0.07230972 0.27759224 0.15071751 -0.4409792 0.030970277 -0.12585309 -0.34812972 -0.11865946 0.21801795 0.44871053 0.91123265 -0.29145104 -0.3975973 0.15786314 -0.41964674 -0.09439351 -0.2854929 0.28655788 -0.5537055 0.3509358 0.53871167 1.2752811 -0.1297373 0.086321354 -0.105978735 -0.00802721 0.39673978 -0.21268885 -0.005007613 -0.26678059 -0.40838763 -0.6479924 -0.13770616 -0.6043011 0.14109196 -0.23879285 0.4127238 -0.010413595 0.20671417 -0.059174117 -0.38959897 -0.17957425 0.23354544 0.24519514 0.6228913 0.3953421 -0.07319813 -0.13092543 0.2601424 0.1322864 0.2369382 0.2574121 -0.4781646 -0.10916013 0.33016658 0.2851871 0.08561572 -0.20527314 0.27481732 0.37129712 0.45225123 -0.56710017
reine 0.5295245 1.0190732 -0.7814616 -0.29626027 -0.12020638 0.5718518 -0.0027512265 1.3820965 -1.2001379 0.054283 -1.2645296 1.1646289 0.5641155 1.3404939 0.5209511 -0.31660953 -0.33082476 -0.52171963 0.4815632 0.48099658 -0.54609424 -0.03061365 -0.23538081 0.89609635 0.39922467 0.2754335 -0.34562418 -0.03413062 -0.20054281 -0.39087704 0.09788692 0.14640123 -0.4219054 0.10529908 0.10152659 -0.9783327 0.6789798 -1.4908525 -0.17681913 0.3399344 0.33503586 -0.41683838 0.21156406 -0.2154943 -0.06554749 0.2822924 0.21579738 0.44530797 0.1641213 -0.35369003 -0.32853794 -0.26843914 -0.23227812 -0.35825408 0.18161398 0.2658441 -0.76852936 0.39098188 0.55452 0.55356634 -0.17716904 0.31495768 -0.57392764 -0.6007446 0.28989854 -0.016138446 -0.4373784 -0.5629858 -0.52664495 0.100272015 -0.59925264 -0.30555886 0.33743897 0.28888762 0.5020851 -0.62643313 -0.46726787 -0.42562985 0.075950325 -0.228511 0.59839183 -0.12358066 -0.26723248 0.55667746 0.39520186 0.5505749 0.032041345 -0.1434031 -0.31374407 0.599233 -0.5796938 0.36634895 0.10317541 -0.12634735 0.11592543 -0.2807697 0.40889186 0.3852012 0.33182594 -0.65381247
cheese -0.40007934 0.7002282 -0.05724608 -0.45771545 0.13547353 0.49888313 -0.32011595 0.5981334 -0.365684 -0.16617423 -0.38393155 1.2631527 -0.19446772 0.49527714 0.42945707 0.14096758 0.24390367 -0.39302048 -0.6766162 -0.32756093 0.1547696 0.45204523 -0.09810987 0.12232904 0.6682168 -0.016900761 -0.6095065 0.6249284 -0.42799026 -0.041156735 -0.96170574 -0.17767014 0.062264323 -0.13961738 0.3082716 -0.3606183 0.7450689 -0.34297097 -0.8205352 0.21912028 0.20057948 -0.2218427 0.7649501 -0.08488128 -0.16129687 0.63985157 0.4422106 0.35550886 0.62458855 -0.4199521 -0.8632481 -0.21544808 -0.23079912 0.065657645 -0.5165639 0.33525148 -0.50783056 0.48835066 0.14826761 0.09092621 0.31931797 0.1315024 -0.78751856 0.23593143 -0.10409596 0.5210388 -0.3504755 -0.09589035 -0.13122222 -0.35570922 0.1500528 -0.5995782 0.4822203 -0.29580688 -0.11231296 -0.21629712 -0.36574394 -0.10577322 -0.22706392 -0.08758339 -0.010191723 0.106278576 -0.07779235 0.33138934 -0.4922587 1.044369 -0.46150523 -0.5243141 -1.24191 -0.12942265 0.23976916 -0.057690334 0.13231924 -0.01360775 0.36558244 -0.4051972 -0.0031824703 0.15459189 -1.0172962 -0.4537305
onion 0.39357585 0.47512782 -0.9843552 -0.5666096 0.055507574 0.6883225 -0.09411815 -0.045355663 0.0048320615 0.56885594 -0.8349138 0.36351645 1.0522902 0.6898479 0.39378583 0.24569675 -0.22829878 -0.71393514 -0.019436419 0.40057403 -0.5225581 -0.4949326 0.1143027 0.11305899 -0.012990489 0.377738 -0.46127096 0.15061533 -0.32349515 -0.3157623 0.24272804 0.27710447 -0.43539572 -0.2331481 0.36109677 0.31663197 0.2320228 -1.0606704 0.32128838 0.9030553 0.1325623 -0.9328908 1.1835221 -0.4199975 0.0010356172 0.31903502 0.20598303 -0.043812107 0.15136696 0.2477922 0.5365892 -0.6533141 -0.01762609 0.018246155 -0.831508 -0.77458113 0.10907534 -0.08647323 -0.1279451 0.6599135 -0.55341274 -0.5240611 -0.07656656 0.3006043 0.075427845 -0.11872462 0.09468713 0.029453032 -0.35269642 0.058936022 -0.5456417 -0.092991136 0.42573273 0.25159526 -0.16222651 -0.44384167 -0.21938764 0.31435156 -0.3841868 -0.52917576 0.0032042346 -0.2342851 0.035872784 -0.34912148 -0.20492728 0.45462003 -0.78951895 -0.6246302 0.5183983 0.08580944 -0.109696396 -0.1448145 0.2156665 -0.06390573 0.46456093 -0.051067073 -0.46837243 -0.45190504 -0.029951572 -0.24973454
origin -0.37808716 0.30430135 -0.7043285 -0.15945901 -0.5823383 0.2429641 -0.14418383 0.39484075 -0.6616668 -0.72069585 -0.572706 0.970551 0.4254744 -0.0019219934 0.50872356 -0.41150776 0.5598467 -0.19937645 -0.074825265 0.5091588 -0.0125906505 0.25863162 -0.7738616 0.43346727 0.39187333 0.35226607 -0.18433355 0.28334662 -0.08310391 0.051195942 -0.29068577 0.40937617 -0.47906584 -0.6615037 -0.05328086 -0.71760076 0.31697118 -1.2371392 0.16583723 0.735946 -0.17236935 -0.4755753 0.43716332 0.052746028 0.01597654 0.26711598 0.83517706 0.9983054 1.0686158 0.23791899 0.00074865716 -0.71772385 -0.9324632 0.1288397 0.17854851 -0.42157716 0.19090281 0.10018497 0.4467786 1.9805033 0.3822056 0.23856166 -0.5861937 0.45604548 0.7314582 -0.11886056 0.096637405 -0.13133162 -0.66603106 -0.42091918 0.1936724 -0.97464424 0.482042 -0.16166556 -0.6523871 -0.25411445 -0.7865451 0.022470914 -0.59096766 -0.8618886 0.14307395 -0.17701308 0.07903789 -0.10857398 0.2784558 0.3092305 -0.52646047 0.119415104 0.14963107 0.37922305 0.3985709 0.0908269 0.01440717 0.20470451 0.59793353 -0.18040803 0.027852288 -0.064459406 0.25519487 0.16973731
mild -0.2440753 0.44586018 -0.038363326 -0.19995722 -0.010756427 0.92099094 0.060446285 0.8882408 -0.45237365 0.09272918 -0.3821823 0.93995374 -0.2518291 0.52925277 0.23886263 0.1438066 -0.25685874 -0.85006666 -0.10276103 0.32159302 0.12754107 -0.055443674 -0.07770062 -0.07522774 0.59655905 -0.09319349 -0.047758307 0.14669754 -0.20943536 -0.38738468 -0.06843098 0.08185277 -0.4945379 0.3778519 -0.031860046 -0.33226296 0.31397074 0.13224126 0.082742855 -0.011753836 0.42125195 0.2657122 -0.30567414 0.2782497 -0.36439425 -0.18471202 -0.27738076 -0.041812725 0.12675092 -0.2836675 0.24399301 0.12256999 -0.08912175 0.08400384 -0.27040353 -0.3607315 -0.15717283 0.6869695 0.41180912 0.48040715 -0.029357467 0.04727725 -0.44969586 -0.13816474 0.11753803 0.3835739 -0.40509138 -0.34578088 -0.32108632 -0.5034737 -0.016343253 -0.878749 -0.25677684 -0.2331721 0.086692296 0.058698718 -0.81267667 -0.24045727 0.03719914 -0.7556094 0.43319932 -0.2542696 0.15531422 0.35774937 -0.11840127 1.2257501 -1.052682 -1.1376901 -0.40421858 -0.06124803 0.10492735 0.024116589 0.39714354 0.27501556 0.24943598 -0.5876758 0.2443512 0.42981017 -0.6438817 -0.5208203
caprina -0.21985658 0.5869147 -0.77163005 -0.3687027 0.08701995 0.78597885 -0.11563003 0.7792642 -0.47090033 -0.11482426 -0.3878844 0.54733574 0.07635239 0.73616153 0.15938662 0.14030074 0.07990068 -0.25126228 -0.379847 -0.30733126 -0.39382252 0.009379686 -0.038939077 0.5801675 0.047312833 -0.33728495 -0.6852129 0.063728794 -0.6705924 -0.4149469 -0.6368561 0.1600472 -0.17147028 -0.3566917 0.13186602 -0.33704048 0.24674714 -0.18046756 -0.48332077 -0.055739027 0.39548874 -0.3217047 0.6496943 -0.48388827 -0.2533547 1.0765725 0.8067912 0.37150243 0.35979363 0.4297232 -0.06316335 0.048842214 -0.26454708 -0.08061598 -0.8333486 0.14989813 -0.08345721 0.36880103 0.4384568 0.33903453 -0.058934562 -0.104190096 -0.9459442 -0.14955212 0.25794297 0.56175035 -0.30681333 0.12157522 -0.81359106 -0.3711077 0.6828022 -0.68478996 0.255263 0.32539454 0.24816851 0.08894237 -0.7306619 -0.595834 0.14543766 -0.3883386 -0.15953146 -0.05838963 0.01266026 0.31625625 0.022193488 0.62904614 -0.3132924 0.08549164 -0.43935606 0.10782223 0.15999411 0.11736246 0.31554836 -0.014712973 0.21429247 -0.41701397 0.3625496 0.030378144 -0.93434376 -0.35440072
http://www.co-ode.org/ontologies/pizza/pizza.owl#NamedPizza 0.16576648 0.24372222 0.33908975 0.13548975 -0.3382444 0.09263128 0.8673541 0.15839669 0.122932404 0.65854555 -0.24601382 -0.8183381 0.31587136 0.63080347 -0.0073702596 0.10601851 -0.071196645 -0.936035 -0.2674022 -0.54786825 -0.27181038 0.2849332 0.06575271 0.5895017 0.83202153 -0.14479414 -0.3484895 -0.6605857 0.13836622 -0.03544067 0.26324493 -0.87167656 0.5295631 -0.32752135 0.19828543 0.28115904 -0.020932801 -0.44519806 0.3230115 -0.15650298 -0.114138156 -1.2643343 0.41549045 0.04154272 0.101816125 0.5123539 0.8742543 0.7879294 1.1865934 -0.47253668 -0.91051066 -0.7673159 0.27455884 0.9366886 -0.27884755 -0.31215337 0.287013 0.30553696 0.22423638 0.36953682 -0.8268167 -0.31063792 -0.86098653 -0.29604554 0.54545856 -0.3326089 0.2929401 0.04431679 0.13904817 0.374501 -0.13630855 -0.7168012 -0.2317057 0.1464643 -0.105945066 -0.0065368833 0.042165615 -0.12785062 0.19651218 0.06456633 -0.50252956 -0.20593509 0.31059277 0.11779939 -0.29988423 -0.16317259 -0.44763154 -1.3642982 -0.15921159 0.055630248 -0.3134393 -0.66571033 0.5999941 0.15041551 -0.48270333 -0.6131896 0.42842063 0.30936506 -0.62210804 -0.59272593
or 0.38892335 -0.32173324 0.3577031 -0.4241234 0.17289418 -0.20477389 -0.6385268 -0.12177471 -0.32616386 0.21499458 -0.560717 -0.089909926 -0.19930315 0.3490492 0.6493305 0.27578178 0.2670454 -0.5995591 -0.6169184 0.5465657 -0.010335781 -0.27979094 -0.5954985 0.49977225 -0.14172772 0.3242699 0.568809 -0.18020251 -0.36831683 -0.29915532 0.2689231 -0.26566064 -0.008685251 0.5268591 -0.13735184 -0.32076636 -0.07303368 -0.61911714 -0.24963222 0.32956085 -0.420086 0.18650329 -0.11919302 -0.498187 0.19942573 0.54354143 -0.225094 -0.16497074 0.40488812 0.022781467 0.25635323 -0.11358564 -0.46877053 -0.70171726 -0.070419624 0.4359803 -0.358506 0.57739484 0.18942676 1.3906275 -0.32194692 -0.29043904 -0.83034426 0.68391067 0.21191294 0.61105734 0.30655366 0.037643157 -0.23599224 -0.44434407 -0.027389158 -0.3128843 0.54762614 0.06287987 0.48971915 0.16951573 -0.1359061 -0.14316289 -0.598594 -0.5647662 0.5416315 -0.15575407 -0.056957386 0.2651586 -0.3740376 0.8004267 -0.18942398 -0.8532016 -0.17894845 0.37595692 0.47232604 0.7049732 0.7841502 -0.12574062 0.78647244 -0.8676947 -0.5510355 0.2601435 0.33877525 -0.07537767
http://www.w3.org/2004/02/skos/core#altLabel 0.13811913 -0.55037814 0.56932825 0.06451258 0.021142988 0.13023934 0.043038804 0.04611888 -0.049155846 0.51022947 -0.015106869 -0.0056809667 0.09193827 0.7393367 0.26462808 0.42000937 0.18173836 -0.17718427 0.15449049 -0.18645395 0.04739316 0.15091772 0.17949331 -0.009364734 0.47454217 -0.41057262 0.25114754 -0.46897605 -0.029255372 -0.11631809 0.24295028 -0.35760477 0.0014485873 0.07328046 -0.05706496 0.55189675 0.5131326 -0.9882138 0.069247045 0.009529293 -0.017554818 -0.63985103 -0.09595899 -0.4910616 -0.05725433 0.7291024 0.8037845 0.28703788 1.0463235 -0.72415227 -0.39901507 -0.6028312 0.2718124 0.7266317 -0.44246033 -0.13358773 0.024753654 0.2783498 -0.064446 -0.060932465 -0.5357562 -0.31224513 -0.6193828 0.0898942 0.37576023 0.09716832 0.14464244 -0.027755307 0.2875796 -0.18503322 0.14822695 -0.3119866 0.45649958 -0.14438221 0.35737294 -0.028198732 0.1259188 -0.40455693 -0.11741469 0.14161518 0.13367261 -0.53824157 0.01601432 0.28219745 -0.5135703 0.048584357 0.2669148 -1.0122759 -0.042601712 0.353414 -0.5913755 -0.3713861 0.39421797 0.14963302 -0.1224472 -0.81605303 0.25228122 0.3419083 -0.7257461 -0.23203696
ham -0.14054053 0.32730192 -0.21453968 -0.21289809 -0.5982242 0.03550414 0.068966135 0.64729816 -0.7545939 0.44049463 -1.0225555 1.0128548 1.0465019 1.1539555 0.1438471 0.25215027 -0.5875036 -1.3634918 -0.09418691 0.45569795 -0.31883124 0.03618662 -0.29122114 0.65673596 1.005958 -0.13261566 -0.7371662 0.37986508 0.058106117 -0.06319157 0.227756 0.4802807 -0.40665346 0.11547061 0.45635837 -0.53326476 0.12958623 -0.9604305 0.20044066 -0.07296518 0.38611397 -0.6692558 0.15774311 0.08071503 0.35421216 0.31807756 0.07458494 0.2914648 0.58164334 -0.2920041 -0.045068823 -0.6919026 -0.17849725 0.30864698 0.12663917 0.03587862 -0.572573 0.3952342 0.45907605 0.40683132 0.042293284 0.10624419 -0.12785597 -0.1071452 0.008963063 -0.3291534 -0.21570513 0.05258513 -0.43516994 0.03225877 -0.43887857 -0.32967293 0.24852033 -0.04343019 0.18228596 -0.041044254 0.14799953 -0.82720387 0.14079782 0.45208696 0.54167944 -0.028276626 0.042831857 0.46617043 0.22601761 0.0042867092 -0.15602079 0.35523838 0.33476964 -0.06058635 0.21056315 0.21172597 0.03342176 0.34167448 -0.38831475 0.30162185 0.5268863 0.31923428 -0.2721281 -0.29344887
named 0.11060824 0.38519222 0.13568671 -0.067307174 -0.36727992 -0.42228594 -0.09499102 -0.014705827 -0.07639624 0.18432312 -0.50446814 0.5161702 0.56852806 0.4922231 -0.06337527 -0.73557115 -0.3462049 -0.89232427 -0.058520686 0.092577785 -0.77099484 0.3715797 -0.059872717 1.7349548 0.32024324 0.97758114 -1.1940192 0.70197964 -0.43344378 0.03742486 0.1903214 0.16781136 -0.88094455 0.10348448 0.2890961 -0.43102804 0.8345421 -0.20929281 -0.43079185 1.0870311 0.15678886 -0.5320377 0.72087544 0.16659366 -0.33562437 0.4428745 0.3832982 0.08329989 1.1964078 -0.31700546 -0.6690462 -1.1014916 -0.47711083 -0.0231673 0.42154488 -0.31490874 0.10643768 0.5636933 0.44570377 0.46841428 0.56699854 -0.58753824 -0.27733588 -0.20813517 -0.1331082 -0.26079336 -0.24467029 -0.013403612 -0.32193974 0.2730445 -0.36665487 -0.23300308 0.32176504 0.12306034 0.12914209 -0.56882095 -0.27844253 0.41927907 -0.34269953 -0.5560175 -0.4795059 0.050093077 0.49266133 0.22394507 0.06650084 0.3041985 -0.33444104 -0.0560468 0.46627003 -0.09031485 0.38261253 -0.6044502 0.08363977 0.26381412 0.6189814 0.34779397 0.07761799 -0.3786308 0.14760438 0.11485012
cheesetopping -0.17648445 0.67763877 -0.15407726 -0.31848955 0.18767592 0.5682484 -0.20184249 0.60106105 -0.35403907 -0.18937393 -0.47452864 1.226429 -0.34516442 0.30604845 0.39467007 0.15392984 0.2526682 -0.31705335 -0.7447066 -0.22978692 0.3843809 0.39990008 -0.15490855 -0.027370622 0.5981934 0.042485937 -0.44417658 0.3471654 -0.36288768 -0.26359022 -0.8283406 -0.21858767 0.21278451 -0.12792422 0.06969438 -0.17684224 0.74466455 -0.45278835 -0.763881 0.27669677 0.3193426 0.0102517465 0.73982984 -0.14266022 -0.09603567 0.338636 0.15806973 0.20210813 0.69716775 -0.5096554 -0.77844745 -0.19724162 -0.096554555 0.033625543 -0.30842018 0.3875309 -0.35144886 0.50247794 -0.006444753 0.28667793 0.31443864 0.17470957 -0.7185973 0.14902644 -0.053894233 0.6186348 -0.18655953 -0.28628755 -0.08717719 -0.33863539 0.17899884 -0.27773267 0.2576935 -0.31612548 -0.04601923 -0.31965017 -0.3997183 0.094353065 -0.22925168 -0.20399988 -0.041732714 0.07200563 -0.109490536 0.16749461 -0.5545929 0.9521813 -0.41229215 -0.69830835 -1.1906059 -0.10895957 0.085866295 0.08907527 0.03906964 0.10749855 0.3994531 -0.3676995 -0.2732259 0.18577465 -0.84250766 -0.29386246
garlic 0.16069162 -0.1977965 -0.5073917 -0.3193103 -0.043634545 0.52051145 -0.37813208 0.45194322 -0.70423687 0.9965114 -0.6666474 -0.06343988 0.7930465 0.8094412 0.20360568 -0.5792449 -0.56109595 -0.82043695 -0.2989694 0.06321582 -0.08180249 -0.020735137 -0.0372355 0.21872023 0.100175664 0.5277358 -0.9875525 0.3097117 0.008156852 0.03241239 0.2338659 -0.123427525 -0.619649 -0.23960154 0.42536968 -0.09518576 0.33821812 -0.37476647 0.049294572 0.3259564 -0.056224637 -0.20296176 0.58258754 -0.5248167 -0.08313317 0.39241552 0.13245803 -0.26963067 0.22782706 -0.107915126 0.0028610462 -0.65798146 0.13112174 -0.12741515 -0.43381503 -0.092469305 0.36865398 -0.04981486 0.18537264 1.2158072 0.20261714 -0.22538128 0.118187204 0.40264043 0.5930565 0.5001066 0.28848967 0.27039728 -0.47667503 0.384408 -0.301637 -1.021607 0.5289768 0.20045292 -0.102020495 -0.44492307 -0.2693346 0.184441 0.28695375 -0.083443314 0.21681245 -0.5927595 -0.068763025 0.14939186 -0.269995 0.2184113 -0.3208081 -0.3568336 0.6294018 0.20635673 0.39460084 -0.25130138 0.4656296 -0.11913236 -0.027684988 -0.11440391 0.24855968 -0.6382066 0.147632 -0.23948886
http://www.co-ode.org/ontologies/pizza/pizza.owl#VegetableTopping 0.24920274 -0.7726736 0.06033169 -0.64458275 0.4871716 -0.3109784 0.24934357 -0.3898479 -0.2329047 0.4602834 -0.63369095 -0.5897301 0.33392045 0.086935334 0.12535356 0.20938775 -0.19524921 -0.52710664 -0.7289394 -0.23974985 -0.38960552 -0.08326906 -0.04703373 1.060738 0.35041595 0.12591389 -0.18557781 -0.21577106 -0.3584428 -0.36553478 0.24892539 -0.19062102 0.20589453 0.14770176 0.1883705 0.117588 0.18034512 -1.2439265 -0.019648844 -0.13130002 0.276469 -0.19417182 0.6158844 -0.4711595 0.11810083 0.3528042 -0.2060566 -0.08385188 0.76488924 -0.0034523995 0.47676286 -0.48382625 -0.10035836 0.10084174 0.41980642 -0.14990984 -0.31538236 0.073820904 0.35655075 0.17292474 -0.6533949 -0.00053957035 -0.751313 -0.03743156 0.6156578 0.17904574 0.1733891 0.1935196 -0.6893278 -0.9843515 0.054365583 -0.16926752 0.06491243 -0.053924154 0.7084152 0.68595916 0.12127319 0.21707363 -0.4776114 -0.20825635 0.602417 -0.3004708 -0.12053297 0.64930683 -0.35948908 0.40050212 0.08058259 -0.95114374 -0.26194304 0.6981925 0.19643088 0.06354302 0.649504 -0.36105514 0.15266378 -0.8556384 0.3868007 -0.06989258 -0.9649449 0.087655716
green 0.093284585 0.38369632 -0.8603219 -0.384189 -0.2594461 0.5988515 0.46495226 0.35091823 -0.26979172 -0.10531099 -1.156741 0.32339025 1.1038384 0.98742616 -0.06589855 0.38716292 0.48642722 -0.7214226 0.22315581 0.41087946 -0.015152883 0.2601807 -0.7362365 0.5678077 0.18927924 0.24990502 -0.03259272 0.12795708 -0.19632213 -0.21917136 0.090252824 0.5969941 -0.48516178 -0.5439831 0.40682223 0.35835788 0.2971254 -0.44903952 0.13246511 0.9461463 -0.1106218 -0.6447986 0.2656132 -0.26278347 0.71012545 0.59588 0.4932172 0.13338856 1.1591492 0.026256856 0.28596476 -0.5581947 -0.28386277 0.59729886 0.30942217 -0.5327727 0.47767422 0.53691006 -0.26683253 0.544988 0.033812437 -0.36474302 -0.23557031 0.58592445 -0.16600057 0.24552126 -0.116910964 0.4641925 -0.31029534 -0.26528218 0.550874 -0.10294148 0.3582666 0.045577727 0.05105658 0.13186724 -0.16348737 0.24159428 0.0018075572 -0.5997455 -0.07786976 -0.21807143 -0.2288484 -0.048653975 -0.7643757 0.38325125 -0.35357615 -0.05887949 0.13574354 -0.30612597 -0.11335631 0.07302206 0.51856005 -0.5145461 0.37591335 -0.09994109 0.10186381 -0.10195809 -0.041266467 -0.018078255
rosa 0.20400538 0.19578561 -0.5060532 -0.07821848 0.22142911 0.5994778 0.074387476 0.74252754 -0.35315508 -0.2668247 -0.52332133 0.8471188 0.2549251 0.52904016 0.1663843 -0.028966028 -0.14724201 -0.101925485 -0.21005793 -0.27564052 -0.08204646 0.37446377 -0.005802748 0.38716298 0.11785552 -0.23000172 -0.4834665 -0.14126721 -0.39793336 -0.07221634 -0.4424298 0.23335604 -0.0582805 -0.40535855 -0.36052954 -0.6305033 0.38401645 -0.44284445 -0.4360099 0.56325406 0.4139256 -0.1804583 0.67707866 -0.020584075 -0.12984264 0.6629757 0.79159945 0.3562491 0.23309636 0.24981074 -0.3421038 -0.115109436 -0.003501249 0.048828613 -0.46064183 0.15086636 -0.032958575 0.42541957 -0.12027195 0.7291268 -0.23503458 -0.31339097 -0.81010765 0.2397984 0.026014667 0.43612725 -0.10581654 -0.09857245 -0.7233739 -0.3286671 0.0922395 -0.2087592 0.13752252 0.31053254 -0.03028694 -0.3403126 -0.59638524 -0.093488656 -0.14255711 -0.4346651 -0.18364385 -0.029681798 0.21479361 0.21414378 -0.24288838 0.49789995 -0.43271568 -0.24636465 -0.6377156 -0.039153762 -0.009516377 -0.06091089 0.10707742 0.37027565 0.43440905 -0.08281486 -0.07230688 0.022696078 -0.9586411 -0.55706924
hamtopping -0.17500079 0.16171354 -0.43825632 -0.36906704 -0.27218756 0.016643664 -0.034615066 0.66907537 -0.79148734 0.16173276 -1.0084451 0.84654856 1.043745 1.1592087 0.28302 0.1538951 -0.5234405 -1.3083986 -0.12378056 0.42786583 0.02896643 0.17695062 -0.2742847 0.6263359 0.8063507 -0.048988868 -0.5882779 0.20851445 -0.0251773 -0.09658676 0.26919463 0.46581915 -0.3227728 0.13263008 0.50030315 -0.50860685 0.10128125 -0.9629359 0.20329875 -0.17350471 0.22453506 -0.73783517 0.2807824 0.0058026663 0.39987406 0.29706204 0.007873021 0.26109922 0.6310864 0.024280814 0.07376947 -0.8953758 0.04575708 0.043250754 0.048295457 0.23367703 -0.41977248 0.33938366 0.35468656 0.590045 0.022662649 0.11373906 0.04244194 0.09458175 -0.13107748 -0.21783748 -0.2017603 0.016023433 -0.48316053 -0.01679723 -0.46284196 -0.110412784 0.29241112 -0.2031682 0.2620866 -0.17093958 0.035699528 -0.62379205 0.08498515 0.25847253 0.5662809 -0.07210387 0.024106259 0.41426212 0.06342435 0.1467216 -0.0763818 0.20683871 0.2403885 0.12426627 0.38649517 0.3359348 -0.06381337 0.39238578 -0.26308367 0.36999375 0.111775585 0.3227315 -0.06795996 -0.10094023
garlictopping 0.043313924 -0.010748305 -0.46650466 -0.23505206 -0.2818525 0.47002915 -0.2586781 0.41830292 -0.651048 1.1898117 -0.6045811 0.19368812 0.9144201 0.65336406 0.081917875 -0.5748811 -0.49046895 -0.74974376 -0.15295109 -0.020331897 -0.4063266 -0.07536044 -0.045399483 0.13712688 0.1873442 0.48551485 -1.109273 0.4459268 0.11951677 0.174796 0.12591618 -0.081303045 -0.6727262 -0.2643642 0.50448257 -0.15407139 0.3238721 -0.55355585 -0.016088739 0.4666899 0.13235211 -0.24962564 0.74483335 -0.5009589 -0.05873897 0.32706755 0.22381411 -0.11380591 0.1979562 -0.1718635 -0.08657869 -0.5733682 -0.007404792 -0.00012219776 -0.3580997 -0.27648643 0.37770686 -0.12161797 0.330423 1.2124563 0.41486782 -0.1479075 0.032963876 0.18100856 0.66149855 0.3698772 0.12669839 0.31942427 -0.5120828 0.3235772 -0.3494179 -1.3312327 0.52692914 0.20870917 -0.18202734 -0.55700636 -0.20188124 0.19430424 0.27344477 -0.060881186 0.18755989 -0.48713043 0.06296707 0.20771746 -0.1797959 0.14890967 -0.47763103 -0.21133997 0.730451 0.18304563 0.26969096 -0.30899405 0.6163375 -0.09290704 -0.0137207545 -0.12410728 0.4476476 -0.72331196 -0.029017208 -0.33780015
fourseasons 0.43183675 0.37170434 -0.1515803 -0.53006715 -0.02622874 0.9764594 0.20196167 1.1416557 -0.60946786 0.11263939 -0.95774615 0.9360385 0.12340837 1.0298284 0.42406374 -0.039523106 -0.08409174 0.12289456 -0.08388612 0.3490432 0.24646665 0.31617197 -0.29016674 0.5329476 0.31481946 0.14604421 0.21790917 -0.045429375 0.054714423 -0.029595794 -0.1447627 -0.4241081 -0.4554321 -0.13012025 0.31090942 -0.37964177 0.5325651 -0.93498284 -0.28619754 0.40010554 0.2864946 -0.3489707 0.15284473 -0.07817239 -0.013441499 0.17470327 0.7282439 0.49461427 0.48136222 -0.4384652 -0.059556246 0.032257352 -0.2782305 -0.14926283 0.120917566 -0.10169743 -0.17143106 0.35717595 0.38774276 0.7290811 0.13341404 0.79218227 -0.31391993 -0.025964182 0.20893954 0.13754514 -0.2995698 -0.6005996 -0.19778602 -0.6435019 0.098342545 -0.59687084 0.030376501 -0.4482556 -0.10906816 -0.12128055 -0.16131845 0.38391533 0.012917115 -0.48272967 0.23519897 -0.4301707 0.25570685 0.23962939 0.13331085 -0.0083759595 0.24427003 -0.70975024 -0.100432366 0.1282465 -0.18963915 0.23680015 0.17931193 0.05084079 0.051685955 -0.60681456 0.14333758 0.36303353 0.22667576 -0.5866973
polloadastra 0.32331255 0.14972973 -0.95072544 -0.31985456 0.046386383 1.0563563 -0.2272615 0.6341711 -0.5168648 0.46998426 -0.8885842 0.9367246 0.41414973 0.15263967 0.02888785 0.10698689 0.25153595 -0.36932522 0.05456482 0.28390858 -0.2987279 -0.39843112 -0.088617995 -0.22720471 -0.19583696 0.1518415 -0.24184225 -0.3395888 0.28708687 -0.024224084 0.21222489 -0.30688888 -0.04136037 -0.30884868 0.010800678 -0.25670585 -0.09508849 -0.63268334 0.10385801 0.5226045 0.35465273 -0.2991959 0.30115682 -0.86056614 0.033684127 0.06585743 0.3845869 0.095551915 0.22194974 -0.07330511 0.36808193 0.320179 0.0885238 -0.067717 -0.31161082 -0.09099034 0.26597264 -0.08680337 -0.05573215 0.72724056 -0.64966524 0.004790761 -0.55413216 -0.040731624 0.5396914 0.3486427 0.1095297 -0.05998061 -0.37477165 -0.81644195 -0.37914324 -0.8073193 0.32555664 -0.027744377 0.13920301 -0.32582137 0.06498168 0.3473489 -0.30685934 -0.5334022 0.1827767 -0.36591494 0.11010828 0.26478255 -0.031975813 0.23145714 -0.4437322 -0.73135346 0.07188045 0.58751345 -0.29746556 -0.30652407 0.12458942 -0.19199806 0.4144739 -0.4883417 0.39336547 -0.73497444 -0.6851901 -0.41091692
spice -0.31754532 0.24413016 -0.40325296 -0.22651924 0.32428253 0.8432563 -0.31300133 0.128009 -0.42205873 0.27158776 -0.31733128 0.58185184 0.056103256 0.44183478 0.4220559 -0.18955678 -0.1419116 -1.1848258 -0.52125764 0.23412514 -0.47649828 -0.41261128 0.44044203 -0.23659544 0.5292131 0.93141216 -1.0921563 0.49158385 0.041367542 0.11003423 0.13711108 0.04650776 -0.07112866 -0.38171765 0.33891404 -0.017780527 0.88306296 -0.62463254 0.17967524 0.59125274 0.3903143 -0.2865554 1.0867324 -0.836492 0.1733219 -0.18218185 0.13338831 0.3917892 0.61552787 -0.14147513 -0.31056932 -0.17968999 0.12888707 0.1825615 -0.1619916 -0.34907344 0.2765011 -0.03744563 -0.42607445 0.57876337 -0.1502517 -0.24492425 -0.42599833 0.5028321 0.45837867 0.40032881 -0.12112368 0.5266308 0.12265287 -0.42889217 -1.0065544 -0.578366 0.38623452 -0.30423722 0.27539656 -0.3366764 0.02373081 0.17829432 -0.60522944 -0.22668616 0.20292827 -0.16704257 0.1269169 0.34343272 -0.31252697 0.5675322 -0.8451439 -0.5536879 0.15416503 -0.04622565 -0.1322361 -0.6538065 0.15088259 -0.2018105 0.5019828 0.01668774 -0.20969996 -0.8340547 -1.1547136 0.10747376
mushroomtopping 0.5234561 0.7109452 -0.23467076 -0.62305045 -0.2698178 0.82428133 0.083808504 0.90761715 -0.37857407 0.26044542 -1.1326561 0.52478176 0.5460554 1.3184729 0.43956435 -0.43252313 -0.57324153 -0.7815139 -0.297932 0.56409156 -0.37324423 0.17654017 -0.20582853 0.78270715 0.39646816 0.21556169 0.19075751 0.41894808 -0.31310868 -0.4430197 0.26221138 0.24756245 -0.45348048 0.17843282 0.27758363 -0.09820706 0.88256586 -0.8080997 0.04913658 -0.0010057399 0.0374631 -0.6313836 0.9952885 0.070110485 -0.12957561 0.17255981 0.14343852 0.007850804 0.6046868 -0.289596 -0.24096994 -0.5648109 -0.18875892 -0.3624361 -0.24011785 0.05140287 -0.705007 0.24195516 0.3833572 0.4115326 0.14110012 0.24335837 -0.050804786 0.14676322 0.05142867 -0.041758467 -0.20588998 0.16353005 -0.7003786 0.09634833 -0.38736978 -0.38827774 0.2511463 -0.30907977 -0.08582981 -0.14359105 -0.32554796 -0.2308876 -0.019004045 -0.18380472 0.43002632 -0.1965429 0.17685993 0.49371326 -0.09442648 0.16904859 -0.13103682 -0.19546828 0.11117381 -0.03499015 -0.017450655 0.34574157 0.3160563 0.28150737 0.042632 0.12327185 -0.08161722 0.2720574 0.74399894 -0.32791695
parmezantopping -0.087519355 -0.005721627 -0.24734229 0.055733114 -0.41550893 0.31409535 -0.20250374 0.3874144 -0.7286834 0.23904136 -0.5131969 0.17533417 0.3426523 1.0463436 0.3974866 -0.08202267 -0.4004756 -0.48918083 -0.46062407 -0.16473836 0.17889419 0.35729176 0.2697302 0.07785998 0.5994544 0.2767612 -0.41199046 0.15698867 -0.3933578 0.22139801 -0.12184317 0.19792968 -0.30831224 -0.08611927 0.36046782 -0.34168434 0.71823514 -0.8476797 0.067370854 0.37779692 0.13896759 0.00645631 1.0732021 -0.33493757 0.23504806 0.34358692 0.20093001 0.0047428515 0.22027066 0.28411946 -0.42835715 -0.7816167 -0.2870261 -0.35399768 -0.08719911 0.33897167 -0.24501102 0.22207989 0.24737094 0.8016148 0.589029 -0.14640062 -0.20377593 1.0376867 0.46468115 0.43106583 -0.2053664 0.18075967 -0.4729609 -0.14862797 -0.7184634 -0.8205613 0.14914595 0.033458848 0.3169814 -0.07359826 -0.79779243 -0.40420386 -0.23074296 -0.15896945 0.17623132 0.011558003 -0.041053034 0.20390663 -0.037913784 0.48401192 -0.61933684 0.24330337 -0.23914705 0.22006807 0.29534975 0.029134117 0.6180166 0.14112599 0.1647459 -0.0427181 -0.030981202 0.16442046 -0.4595671 0.08113878
frutti 0.49611962 -0.06747857 -0.70161057 -0.13534507 -0.13039649 0.34461612 -0.20655674 0.76427245 -0.55736005 0.6489852 -1.3156012 0.005601045 0.33936062 0.5389263 -0.19440934 -0.5634934 0.043838978 -0.4020638 -0.09489887 -0.28406 -0.115295455 0.13812405 0.002198604 0.0553606 0.014443669 0.6014676 -0.69260746 -0.2951209 -0.13310978 0.18959263 -0.3761751 -0.45937067 -0.26349634 -0.663198 0.7905794 -0.42088896 0.16998965 -0.44734374 -0.053127315 0.46197775 0.66035324 0.07338824 0.053403568 -0.41916788 -0.011003543 0.6474431 0.5206449 0.0033320433 1.0851412 -0.1405951 -0.48514923 -0.35963503 -0.16491407 0.31063184 0.047413446 0.33037975 0.70849043 0.23637563 0.5363177 1.2430855 0.067790344 0.1392242 0.040043235 -0.4272166 0.8231679 0.5668335 -0.20335825 -0.018489797 -0.3968344 -0.008587388 0.34255937 -0.915154 0.3743561 0.010344611 0.6321695 -0.8112918 -0.53648955 0.110067464 0.44440255 -0.31853688 -0.111017615 -0.7021398 -0.12681572 0.64153755 0.16693924 0.20054476 -0.00013838134 -0.132158 0.22519732 0.32576007 0.20060495 -0.33567 0.7867626 -0.53914773 -0.20196225 -0.26169738 0.6570494 -0.61814916 0.023047296 -0.8690489
mare 0.5139411 0.07301588 -1.3020389 -0.0298919 0.23365249 0.49996492 -0.006346357 0.843707 -1.2835793 1.1613685 -0.9546604 0.4493541 0.5835654 0.786332 0.2421476 -0.52636904 -0.105222814 -0.6013655 0.07341079 -0.39411095 -0.15094618 0.31828508 -0.153643 0.5733663 -0.20864373 0.35584146 -1.281525 -0.50513804 -0.08964142 -0.095041715 -0.3370251 -0.5810175 -0.7027247 -0.30965474 0.43578398 -0.48582706 0.01932285 -0.048941687 -0.45324695 0.5907119 0.40441227 -0.10861073 0.076412834 -0.75778633 0.2881737 0.5227416 0.5491715 -0.2321989 0.7649686 -0.3504395 -0.24361569 -0.03770309 0.12973331 0.37939012 0.25359997 -0.13132884 0.8105463 0.35870954 0.54087156 1.1716207 0.5271357 0.35410374 -0.099543996 -0.48456183 0.6740689 0.68155086 -0.11081424 0.2685357 -0.16274084 -0.2638444 0.28418124 -1.1525708 0.15404043 0.25696683 0.515771 -0.14823501 -0.4264254 0.370029 0.4083012 0.07033077 0.0069060815 -0.2104267 0.17911431 0.47124147 -0.48086488 0.16488984 -0.21501279 -0.102265194 0.060469344 0.4350516 -0.21942432 -0.5272693 0.54925144 0.038151484 -0.15957142 -0.853519 0.9153426 -0.7234025 -0.009178748 -0.22173
di -0.0874816 0.08041473 -0.7823978 -0.46733937 -0.25185892 0.5199171 -0.16556567 0.82993984 -1.0482583 1.0070676 -0.9163183 0.036379624 0.9037823 0.37888718 0.2377165 -0.030875951 -0.042121295 -0.111478016 0.25078604 -0.30381143 -0.27935925 0.45276996 0.06250485 0.5991318 0.08182602 0.18864001 -0.75570333 0.011532356 0.354932 -0.0173893 0.04925624 -0.30155638 -0.5260896 -0.49703687 0.51262206 -0.068970725 0.36400723 -0.26389825 -0.43654567 0.71577215 0.546895 0.3097538 0.28200737 -0.6265227 -0.17104834 0.60671896 0.7221415 0.28929058 0.593157 -0.40945032 0.06923513 -0.5064098 -0.13360232 0.07638201 0.25927323 0.41377667 0.6103532 0.2819666 0.6206787 1.3507543 0.48920056 -0.45029247 -0.14147973 -0.3604639 0.42762932 0.77082574 0.09691222 -0.20872214 -0.7573939 0.004782978 0.48785818 -1.2811221 0.4153941 0.46439636 0.81558937 -0.62245554 -0.27397236 0.6139807 0.53999496 -0.14456578 -0.3216002 -0.66163033 -0.25624526 0.042892125 -0.32019043 -0.101986215 0.026962 -0.09555385 -0.15525448 0.7195393 -0.25310627 -0.35006607 0.39751866 -0.18400097 -0.21757573 -0.36142075 0.81931806 -0.36846656 -0.48910758 -0.35672927
caper 0.2269952 0.42789733 -0.070709825 -0.6401127 -0.31735995 0.966345 0.18216158 0.4353191 -0.18050407 0.2732558 -0.62836987 0.72128636 0.5332937 0.97549605 0.59471023 -0.16846132 -0.5427384 -0.3785707 -0.6233949 0.58240193 0.14766248 0.32562488 -0.31589144 0.32691854 0.38412493 0.12137049 -0.35896578 0.5700737 -0.121429995 0.040388435 -0.13198332 -0.06753318 -0.59302485 -0.15141045 0.2994191 -0.043854214 0.50042796 -0.8892434 -0.051896032 0.43570316 0.13083471 -0.43904212 0.94624776 -0.0065705054 -0.21586373 0.73574954 0.24093144 -0.00026984955 0.35084876 -0.45806792 -0.13293691 -0.92750907 -0.37394893 -0.15192118 -0.5850848 -0.36379904 -0.15365402 0.1346319 0.039332133 0.8972968 0.028406257 0.12956358 -0.084052734 0.39989895 0.08396944 -0.30063513 0.3863008 -0.39838937 -0.5189181 0.0016713073 -0.027565757 -0.40401152 0.35180044 -0.25764367 -0.6848885 0.24795236 -0.31645197 -0.15536597 0.041447073 -0.05813227 0.49660388 -0.5920728 -0.23772712 -0.07195886 0.09846128 0.05762679 -0.09927703 -0.5441958 0.005573637 -0.12422055 0.28285995 0.3905137 0.3414195 0.16450427 0.13824889 -0.15797417 -0.16259824 0.2502425 0.4014978 0.047570165
